{"dims": {"d_in": 2, "d": 32, "m": 24, "ncls": 2}, "solver": {"beta": 0.7, "tol": 0.0001, "max_iter": 120}, "params": {"W": [[0.648194, -0.43991, -0.398366, -0.770617, -0.40048, 0.404162, 0.122335, -0.554474, 0.913736, -1.095301, -0.58905, 0.163992, -0.558563, 0.316438, 1.080356, 0.306645, 0.406106, -0.286542, 0.638192, 0.031069, -0.408584, -0.677572, 0.447657, 0.295533, 0.721849, -0.307866, 0.580651, 0.833787, -1.356239, 0.398062, 0.952918, -0.832096], [-0.361553, 1.204639, 0.336545, 0.15017, -0.865503, -0.692743, -1.206228, 0.978314, 0.832241, 0.194471, -0.029341, 0.486548, -0.25992, -0.315191, 0.278984, -0.134382, 0.040407, 0.165776, -1.385032, 1.517555, 0.518314, 1.108882, 0.87592, -0.156059, 0.590874, -0.746927, 0.439178, -0.195215, 0.395131, 0.063, -0.404195, 0.202561], [-1.302272, -0.889031, -0.014018, 1.502224, -1.051768, -0.657183, -0.950621, -0.692289, -0.234965, 1.005281, 0.681334, 0.217023, 0.36251, 0.421128, 0.623827, -0.099293, -0.597217, 1.15732, 0.103423, -0.887832, -0.393258, 1.196476, 0.183338, 1.745375, -0.378422, 0.84214, -0.390683, 0.770228, -0.028246, 0.301311, 1.003464, -0.193651], [-0.662525, 0.285297, -0.141675, -0.69713, -1.717417, 0.276489, -0.005474, 0.977821, -0.750062, 0.65286, 0.295647, -0.528743, 0.204084, -0.358752, 0.271582, 0.466718, 0.373202, 0.788924, -1.69976, 0.573117, 0.527103, 0.541299, 0.597117, -0.168312, -0.80459, 0.06079, -0.29, 0.769469, 0.85144, -0.555351, 0.555857, -0.387933], [-0.601495, -0.523959, 0.510209, 0.620736, 0.281536, -0.039514, -0.620129, 0.471913, -0.434481, 1.306982, -0.249011, 0.149965, 1.038731, -0.01215, -0.699214, 0.022774, -0.564542, 0.013102, -0.985223, -0.022193, 0.15359, -0.470437, -0.441186, -0.812607, 0.146873, -0.523147, -0.475768, -0.346409, -0.237883, 0.778157, 0.485372, -0.853677], [0.256536, -1.114898, 0.197702, -0.377013, -0.754591, -0.140834, 0.417845, 0.112407, -1.00573, 0.61481, -0.288409, -0.576763, -0.839544, 0.41419, 0.017111, 0.604163, -0.616264, 0.576218, 0.535114, -0.29377, -1.45458, -0.255809, -0.761946, 1.478509, 1.084802, -0.653489, 0.289333, 0.463856, -0.083526, 0.779673, 0.159453, 0.682025], [0.327509, 0.499855, 1.039855, -0.768298, 0.152776, -0.747621, -0.466033, -0.767479, -0.523232, 0.26755, 0.28466, -0.383648, -0.619155, -0.516782, -0.661287, -0.101607, -1.356601, -0.323642, 0.058919, 0.28079, -0.043418, 0.490873, 0.703503, -0.369658, 1.208224, -1.070136, -0.557214, 0.348693, -0.411308, -0.600829, 0.148348, -0.100698], [-0.046915, 0.262509, -0.106878, -0.65511, -0.403296, 0.102368, -0.664193, -0.173295, -0.344314, 0.105231, 0.098012, -0.208537, -0.169467, -0.488917, -0.179159, -0.181423, -0.2747, -0.753336, -0.16957, 0.075345, -0.335996, -0.597403, 0.222731, 0.06952, -0.185448, 0.310324, 0.277006, 0.531361, 0.931489, -0.531214, 0.02413, 0.33152], [0.654365, 0.435319, -0.08877, -0.224523, 0.473549, -0.050074, 1.234078, 0.531886, -0.360909, -0.646541, 0.004253, 0.25403, -0.093346, -1.044041, 0.44239, 0.260641, -0.396001, 0.345136, 0.270709, 0.462515, -0.216703, 0.201913, 0.787092, 0.175392, 0.348913, -0.457704, -0.472593, -0.606398, -0.56635, 0.554534, 0.061138, -0.041172], [0.417813, 0.746134, -0.195424, -0.499548, -0.381564, -0.697401, -0.177472, 0.987159, 0.622776, 0.956462, -0.394053, 0.679525, -0.235334, 0.499154, -0.339327, -1.469791, -0.166952, -0.186358, 0.494454, 0.335594, 0.420652, -0.239527, 0.856743, 0.188814, -0.567599, -0.22429, -0.172867, 0.095579, -0.464408, -0.441484, -0.766391, 0.504137], [0.837053, -0.647495, 0.061054, 0.259188, 0.200599, -0.35036, -0.511169, -0.888213, 0.319015, 0.081786, -0.112334, 0.366864, 0.250056, -0.432197, -0.825887, -0.418837, 0.238557, 0.160294, -0.812157, 0.249441, 0.128147, -0.222614, 0.280606, 1.037158, -0.424845, 0.292723, 0.249198, -0.518101, 0.487181, -0.55345, 0.456475, 0.19431], [-0.797829, -0.636592, 0.236606, -0.420988, 0.765935, -0.748686, 0.581106, 0.118926, 0.051015, -0.262305, 0.314324, -0.617399, -1.242691, -0.145515, -0.840593, 0.586386, -0.798028, 0.082621, 0.204025, -0.066095, -0.021728, -0.558111, -0.70151, -0.718084, 0.742449, -0.724484, -0.800534, -0.018877, 0.352077, -0.046762, 0.385527, 0.478313], [-0.272253, -0.58761, -0.334124, 0.208429, -0.049481, 0.410814, -0.533751, -0.746434, -0.41747, 0.79228, -0.349229, 0.593994, 0.483615, 0.816131, -0.326951, 0.543792, 0.119612, -0.14544, -0.287582, 1.485442, -0.569289, -0.853759, -0.324719, -0.344671, -0.15778, -0.259273, 0.386126, -0.102325, -1.054643, -0.385989, -0.011646, 0.258707], [0.013434, -0.580221, -0.070727, 0.332599, -0.576541, -0.677325, -0.173805, -0.055659, -0.373757, 0.332199, -0.553968, -0.041734, -0.307673, 0.468207, 0.840227, 0.247778, 0.428767, -0.351428, -1.0467, -1.116748, 0.608018, -0.320124, 0.283551, -0.163597, 0.424727, 0.151542, -1.182881, -0.32233, -1.15495, -1.038307, -0.098652, -0.501921], [-0.517947, -0.129856, -0.679263, 1.050711, 0.272258, -0.993866, -0.306328, 0.334336, 0.133858, -1.00624, 0.758186, -0.033897, 0.489552, 0.432521, -0.364825, -0.117394, -0.148713, 0.130927, -0.448582, 0.403549, 0.187576, 0.181281, -0.57555, -0.209994, -0.025494, -0.060088, -0.378439, 0.341305, -0.122488, -0.133847, -0.545461, -0.368132], [0.623974, -0.370762, 0.486895, -0.645184, 1.018653, -0.623789, 0.905899, -0.588397, 0.117181, 0.928484, -0.045157, -0.887428, -0.464302, -0.30498, 0.0384, -1.789163, 0.236888, 0.201852, 0.234076, -0.725602, 0.157355, -0.173613, -0.791819, 0.56724, -0.386425, -0.370449, 0.228398, -0.599366, -0.459317, 0.147717, -0.098215, -0.539698], [0.138725, -0.315792, 0.262684, 0.090699, 0.117722, 0.169301, -0.740879, 0.367334, -0.628397, 0.374289, -0.232742, 0.307085, -0.130874, -0.213679, -0.545228, 0.725036, 0.052667, 0.260279, 0.386794, 0.478457, 1.289743, -0.778742, -0.364748, 0.198173, 1.091078, -0.572975, -0.59246, 0.257363, 1.226496, -0.07238, -0.215574, 0.180626], [-0.20085, 0.049083, 0.757671, -0.084599, 0.595139, -1.103865, -0.097472, 0.016408, -0.067683, -0.389383, 0.830178, -0.284754, -0.182782, 0.717363, 0.414347, 0.472366, 0.271646, 0.194834, 0.436738, -0.54737, -0.030721, -0.195882, -0.299368, 0.210546, -0.733113, 0.577861, -0.817382, 0.450444, 0.565945, 0.241453, 0.689975, 0.796017], [1.234861, -0.572545, 0.441371, -1.449395, 0.604079, -0.997274, -0.425329, -0.224365, -0.726743, 0.569999, -0.407398, -0.289929, 0.763181, -0.662313, -0.369903, -0.150874, -0.902814, -0.399954, -0.436152, -0.424887, -0.589486, 0.21551, -0.357564, -0.860212, 0.02386, -0.412832, -0.828785, -0.417714, 0.306663, 0.590932, -0.63408, 0.267161], [-0.546121, 1.57903, -0.610921, 0.19382, -0.322605, -0.061859, 0.300036, -0.776507, -0.245468, 0.232678, 0.201325, -0.562713, -0.433617, 0.577235, -0.876387, 0.058109, 0.377852, 0.561332, -0.88346, 0.387104, 0.083089, -0.144715, -0.341701, -0.188069, 0.19842, -0.363858, 0.416314, 0.341861, -0.13233, -0.124219, 0.494155, -0.344892], [0.375405, -0.655975, 0.738332, 0.334635, 0.291591, 0.910587, -0.910388, -0.118224, -0.539735, 0.609863, -0.683418, -0.174598, -0.528722, -0.022475, -0.665626, 0.287865, 0.398765, 0.1938, 0.450014, -0.169648, -0.808484, -0.412065, 0.33047, -0.520135, 0.958527, 0.186365, -0.178042, 0.356472, -0.062901, -0.471782, -0.005836, -0.627577], [-0.124842, -0.54464, 0.212767, 0.178998, 0.246701, -0.251238, -0.420139, -1.207857, -0.230148, -0.005026, 0.352253, -0.377105, 0.604375, -0.085214, -0.239648, -0.01476, -0.192517, 0.276662, -0.04004, -0.007381, -0.855723, 0.961188, -0.992145, -0.053725, 0.170928, 0.278887, 0.414828, 0.566552, -0.195234, -0.53837, -1.37554, -0.059275], [1.221365, 1.68504, -0.827136, -1.191523, -0.623147, 0.491574, 0.010785, -0.487672, -0.419675, 0.818964, -0.760695, -0.056014, -0.165721, -0.224867, 0.380487, 0.327323, -1.143617, -0.471037, 0.211396, -0.130787, 0.364437, 1.087529, -0.678845, 1.283756, -0.057593, -0.03545, -0.320115, -0.926391, -0.463607, -0.054693, 0.88903, 0.249402], [-0.146125, 1.638392, 0.51379, 0.047327, 0.072127, 1.282149, -0.242023, 0.973989, -0.7906, 0.433832, -1.13302, -0.794869, 0.040769, -0.624512, 0.219176, -0.160916, -0.272663, 0.733024, 0.390691, 0.2748, 0.48151, 0.291601, 0.616016, 0.594851, -0.195562, -0.010462, -0.228754, -0.53921, -0.010237, -0.03427, 0.222994, 1.150027]], "A": [[0.168452, 0.100824, 0.024568, 0.160634, 0.072038, -0.062963, 0.077176, -0.031036, -0.206959, 0.037097, 0.018436, 0.01041, -0.022741, -0.135565, -0.021805, -0.015022, -0.150779, -0.051862, 0.007505, -0.189017, -0.025985, 0.006966, -0.094851, -0.008775], [-0.117299, -0.050462, -0.009097, -0.047242, 0.04495, -0.029633, -0.011638, -0.040102, 0.042051, -0.105109, -0.03321, -0.013753, -0.089197, -0.090587, -0.033483, -0.115479, -0.007202, -0.099197, -0.016288, -0.054114, -0.088957, -0.03611, -0.06442, -0.039801], [0.071877, 0.198863, 0.041, -0.014437, -0.02132, -0.081026, -0.029553, -0.061062, -0.266928, 0.075554, 0.025303, 0.031779, -0.006506, -0.0654, -0.010559, 0.032479, 0.069963, -0.018408, 0.051263, -0.036149, 0.043946, 0.00606, -0.044915, 0.070899], [-0.02238, -0.023961, -0.017059, 0.024878, 0.069916, -0.013056, 0.099726, 0.102511, -0.089377, 0.1067, 0.017795, 0.096943, -0.001333, 0.178637, 0.034924, 0.072235, 0.062542, 0.017767, -0.031773, 0.091144, 0.054466, 0.008056, 0.244171, 0.036101], [-0.160788, -0.023846, 0.002444, 0.005036, 0.084263, 0.0525, -0.054391, 0.042784, 0.118336, 0.14037, 0.022538, 0.07441, -0.003083, -0.007462, 0.004981, -0.045667, -0.034545, -0.053236, 0.046903, 0.034956, -0.013431, 0.009795, 0.082603, 0.118206], [-0.024043, -0.013437, 0.006219, -0.054583, -0.040357, -0.039687, 0.002359, -0.228876, -0.246014, 0.012295, -0.019787, 0.086019, -0.077434, -0.022112, -0.097133, 0.073146, -0.201435, -0.006624, -0.035405, 0.042963, -0.037119, -0.010917, -0.110049, -0.010407], [-0.310903, -0.186222, -0.225463, 0.008503, -0.116457, 0.030708, -0.272324, -0.177751, -0.08535, 0.2172, -0.06893, -0.014401, -0.008858, -0.110964, -0.164568, -0.1006, -0.099523, -0.028722, -0.048191, 0.084669, 0.026218, -0.320188, 0.054623, 0.23088], [-0.104091, -0.084814, 0.021553, -0.090787, -0.026199, -0.092047, -0.2329, -0.031624, 0.153544, -0.401839, -0.220698, 0.019242, -0.017789, 0.100893, 0.001069, 0.111567, 0.114888, -0.075449, 0.025455, -0.057658, -0.078668, -0.079424, 0.10327, 0.00709], [0.013005, -0.038388, -0.083671, -0.01855, 0.172252, -0.137229, 0.063907, -0.040027, 0.0272, -0.233885, 4e-05, -0.093209, -0.025828, 0.057388, 0.018957, -0.113367, -0.075534, -0.160936, -0.181309, 0.063913, 0.02488, 0.003393, 0.059844, -0.019821], [0.025365, 0.100551, 0.03057, 0.008891, 0.149166, 0.007322, 0.068844, -0.144044, 0.000675, -0.003298, -0.017274, 0.053715, -0.097823, 0.038389, -0.046776, 0.128849, -0.091935, -0.013416, -0.1159, -0.073119, 0.018167, 0.00274, 0.059466, -0.020502], [-0.128444, 0.020568, -0.021531, 0.061218, -0.0313, -0.018147, 0.052472, 0.033593, -0.035876, 0.069386, 0.036194, 0.0414, 0.049935, -0.071595, 0.079129, 0.018454, 0.036237, 0.015145, -0.016946, -0.006342, 0.08333, 0.013574, 0.096299, -0.053724], [0.106565, 0.068755, 0.012545, 0.025362, -0.062728, -0.138641, 0.006869, -0.067565, -0.165655, -0.175248, 0.004501, -0.130937, -0.021605, -0.041402, 0.006426, -0.093059, -0.004125, -0.046389, 0.00078, -0.075505, 0.096612, -0.002554, 0.050944, -0.160802], [0.067108, 0.022456, 0.041774, 0.04023, 0.037847, 0.065382, 0.024997, 0.062953, 0.072281, -0.021541, 0.023928, -0.024934, -0.014418, 0.017475, 0.035227, 0.154741, 0.050819, 0.059329, 0.055969, -0.030969, 0.084678, 0.019164, -0.028061, 0.021158], [-0.20361, -0.082437, -0.101453, -0.016924, -0.012823, -0.067158, -0.040074, -0.073085, 0.236285, -0.170407, -0.085758, 0.058357, 0.052831, 0.084774, 0.021899, 0.020656, 0.095791, 0.188995, -0.049754, -0.064234, 0.048874, -0.014211, -0.031462, 0.032771], [-0.373904, -0.05422, 0.069158, -0.207679, -0.207663, -0.005956, -0.143023, -0.058784, 0.21284, 0.047995, -0.122761, -0.070502, 0.059698, 0.047965, -0.010806, -0.048102, -0.045685, -0.13189, 0.084341, -0.055281, -0.013061, -0.093292, 0.150625, 0.055516], [-0.100307, 0.038255, 0.004339, 0.169403, -0.190964, -0.102703, -0.109804, -0.095223, -0.115041, 0.259903, 0.030067, -0.064485, 0.061362, -0.037814, -0.008117, 0.111755, -0.071352, -0.089897, 0.072247, 0.084963, 0.060035, 0.001246, -0.111868, 0.117259], [0.006381, -0.040199, -0.059545, 0.157605, 0.029638, -0.023456, 0.053277, -0.044813, -0.240077, 0.124797, 0.004227, 0.067422, 0.037469, -0.012862, 0.003855, -0.045554, -0.096426, -0.063121, 0.007115, -0.048785, 0.048339, -0.004112, 0.000684, -0.122864], [0.120818, -0.006809, 0.0307, 0.100196, 0.032426, -0.047647, -0.026232, 0.013296, -0.353072, 0.226808, 0.012946, -0.065413, -0.027304, -0.046201, 0.001818, 0.21666, -0.012446, 0.052996, 0.154317, 0.133747, 0.097229, 0.004895, 0.187912, 0.408431], [0.104214, -0.007338, 0.045959, -0.344059, -0.125202, -0.065826, -0.068764, 0.030881, 0.049106, -0.170618, -0.368349, -0.03365, -0.00691, -0.047656, 0.019994, -0.011766, -0.075028, -0.143654, 0.083606, -0.194794, -0.232474, -0.005536, -0.124085, 0.065461], [-0.11769, -0.068346, -0.054703, 0.295978, 0.173628, 0.057898, 0.219685, -0.075375, 0.05687, 0.162211, 0.058179, 0.031937, 0.078477, -0.064631, -0.031537, 0.031066, -0.108464, -0.086611, -0.127467, -0.022404, 0.126994, 0.001922, 0.245065, -0.215587], [0.038033, -0.035318, -0.092634, -0.030262, 0.027135, -0.061812, -0.034143, -0.143848, 0.105426, -0.326793, -0.020666, -0.006601, 0.024984, -0.026487, 0.000657, -0.053184, -0.077346, 0.185126, -0.055762, -0.07381, -0.024646, -0.024268, 0.089535, -0.105663], [0.024228, 0.084289, 0.119446, 0.091274, 0.037657, 0.095584, -0.049011, 0.030743, -0.143037, 0.148517, 0.095611, 0.20949, -0.000957, -0.008941, 0.035831, 0.001083, -0.078566, -0.076747, 0.05377, 0.016707, -0.055404, 0.026526, 0.026018, 0.126959], [0.095555, -0.006563, 0.037473, 0.044135, 0.007883, -0.026576, 0.163314, -0.161143, -0.301966, -0.186766, -0.020004, -0.062087, 0.025586, -0.010105, -0.092301, -0.044523, 0.042, 0.009737, 0.013454, -0.262851, -0.03631, -0.022061, 0.084632, -0.047167], [0.082955, 0.100897, 0.131712, -0.014618, 0.010283, -0.011679, -0.040539, -0.01261, -0.074882, -0.019682, 0.019466, 0.027884, -0.023937, 0.039471, -0.002402, -0.064854, 0.094453, 0.028962, 0.114231, -0.012468, 0.017442, 0.004785, -0.051821, -0.002155], [-0.002223, 0.071264, 0.027576, -0.019899, 0.062324, 0.034575, -0.038301, -0.036511, -0.101589, 0.142099, 0.008631, 0.106297, 0.007639, 0.041649, -0.014176, -0.069071, 0.111061, -0.263686, 0.020396, 0.047852, -0.06899, 0.001392, -0.101883, 0.027299], [0.031438, -0.005234, 0.007321, -0.001798, -0.024584, 0.233278, -0.045262, 0.120954, 0.071029, -0.125806, -0.007349, 0.04653, 0.034437, -0.150699, 0.026062, 0.023341, 0.039254, 0.032855, 0.017892, -0.071633, -0.051157, 0.005127, -0.20136, 0.068174], [0.165286, 0.111256, -0.080467, 0.06416, 0.089565, -0.058725, 0.05494, 0.012307, 0.025336, 0.07517, 0.015874, -0.005695, -0.043784, -0.141135, 0.005656, -0.157417, -0.099656, -0.038469, -0.025211, -0.041529, 0.051458, 0.008113, -0.258391, -0.186369], [0.043691, -0.080565, 0.011404, -0.047831, 0.063414, 0.096417, 0.008831, 0.280517, 0.238049, -0.184015, -0.005811, 0.019582, -0.069803, -0.087952, 0.235294, 0.010546, 0.104513, 0.102567, 0.002874, -0.028928, 0.118668, -0.009692, -0.16827, 0.097197], [0.109065, 0.021346, -0.014541, 0.021468, 0.091603, 0.052055, -0.083841, 0.185016, -0.003992, -0.146695, -0.009862, -0.004439, -0.044553, 0.165702, 0.036636, 0.107506, -0.000297, 0.060459, 0.004104, 0.020454, 0.021985, -0.004932, -0.258615, 0.000584], [-0.10109, 0.016356, 0.022069, -0.228064, -0.193623, 0.053536, -0.042145, -0.070645, -0.025212, -0.122892, -0.091104, -0.127923, -0.120781, 0.130636, -0.026949, -0.033683, 0.009987, 0.123548, 0.063667, 0.161224, -0.035261, -0.190036, -0.178856, 0.0268], [0.098832, 0.065433, 0.090496, -0.005011, -0.017341, -0.006656, 0.001563, -0.306106, -0.14838, 0.117061, -0.004485, 0.114044, 0.032928, -0.140473, -0.048608, -0.016721, -0.044849, -0.059139, 0.113578, 0.041817, -0.022333, -0.054537, -0.180389, 0.043412], [0.033638, 0.075957, 0.0848, -0.12899, 0.051577, 0.073644, -0.085694, 0.052629, 0.122089, -0.210406, -0.024276, -0.054376, -0.034749, 0.1024, -0.004857, 0.115317, 0.152976, 0.124657, 0.039455, -0.095312, 0.011307, -0.006021, -0.148382, 0.13661]], "Uin": [[0.660231, 0.736988], [-0.171144, -0.530636], [0.166911, 0.107689], [-0.13521, -0.254104], [0.158812, -0.446143], [-0.598755, 0.894063], [-0.644916, -0.127164], [0.475915, 0.478187], [-0.122911, -0.257009], [1.008604, 0.20557], [-0.545933, -0.121018], [-0.243742, 0.226573], [0.364624, 0.546519], [-0.342053, 0.928771], [0.632281, -0.847749], [-0.634197, -0.001785], [-0.547964, 0.376691], [1.179565, 0.354022], [0.235265, 0.092563], [0.170839, -0.03434], [-0.041701, -0.578589], [1.349634, 0.434624], [0.531958, 0.39989], [0.596377, -0.083098], [-0.37086, 0.154801], [-0.026744, -0.024665], [-0.403511, 0.480168], [-0.173786, 0.225911], [-0.259813, -0.232042], [0.900107, -0.073716], [-0.795726, 0.126221], [0.34039, -0.109476]], "z0": [-0.187235, -0.037153, 0.031254, 0.155822, -0.130407, -0.360174, -0.395404, -0.086936, -0.139109, 0.104912, 0.295907, -0.075819, 0.223084, -0.129276, -0.441529, -0.205173, -0.016301, -0.230072, -0.22253, 0.280533, 0.008607, -0.129874, -0.203784, 0.001685, -0.038572, 0.114502, 0.15735, 0.062284, 0.411935, -0.273909, -0.432824, -0.01744], "b": 0.49274808168411255, "eps": 1.0529965162277222, "C": [[0.548057, -0.060527, 0.681262, 0.57719, 0.369233, 0.434172, 0.688026, -0.811578, 0.107457, 0.366267, 0.485819, 0.464508, 0.402995, -1.135256, -0.621223, 0.850572, 1.097414, 0.51468, -0.501908, 0.63349, -0.306922, 0.058107, 0.830923, 0.498066, 0.073482, -0.581314, 1.075374, -0.908243, -0.307398, -0.387808, -0.14102, -0.459881], [-1.149426, 0.553786, -0.569866, 0.512997, 0.708616, -1.043667, -1.010563, 0.775806, 0.192112, -0.193307, 0.330867, -0.258678, 0.438809, -0.226873, 0.673146, -0.319556, -0.200377, 0.252243, 1.143113, -0.68347, 0.43951, -0.552594, 0.411903, -0.113096, -0.859269, 0.095771, 0.393701, 1.319893, 0.482718, 1.006495, -0.696767, 0.590304]], "cb": [-0.049836, 0.049836]}, "pca": {"mean": [-0.149391, -0.400633, 0.122113, 0.381406, 0.080073, -0.330408, -0.610537, -0.349183, -0.40328, -0.036621, 0.321117, -0.279986, 0.425644, -0.135348, -0.311574, -0.08268, -0.083687, 0.101307, -0.443375, 0.200198, -0.290863, 0.101495, -0.342832, 0.095472, -0.049926, 0.211408, -0.014387, 0.353346, 0.373759, -0.407101, -0.350093, 0.064412], "basis": [[0.106996, 0.049858, 0.088632, -0.046872, 0.138355, -0.242574, -0.179432, 0.084279, -0.055901, 0.246628, -0.20371, -0.112893, 0.048886, -0.261403, 0.267939, -0.214855, -0.256692, 0.227498, 0.146378, -0.072837, 0.070352, 0.251449, 0.140669, 0.255801, -0.16766, 0.049015, -0.2308, -0.089658, -0.013884, 0.267812, -0.199224, 0.225079], [0.394029, -0.265675, 0.116396, -0.164611, -0.179324, 0.226018, -0.029413, 0.214564, -0.153968, 0.18037, -0.110427, 0.107145, 0.266985, 0.249492, -0.13759, 0.04221, 0.143931, 0.250466, -0.008817, 0.096453, -0.291858, 0.245699, 0.253698, 0.023294, 0.054603, -0.034942, 0.152427, -0.043254, -0.180219, 0.025191, 0.042663, -0.041106]]}, "test": {"x": [[0.34241, -1.222568], [-1.563557, 0.328701], [0.251663, -1.074214], [1.713066, 0.275269], [0.491391, -1.673035], [-0.235108, -1.064887], [0.286131, 1.095208], [1.127062, -0.870592], [0.173145, -0.918118], [0.053418, -0.863575], [-1.516957, 0.965235], [-0.914188, 0.967313], [-1.132037, 1.410193], [0.960513, -1.420404], [-0.119425, -0.625614], [-0.595366, 1.359706], [-0.306534, -0.936433], [1.769827, -0.03258], [1.216853, -0.746059], [-1.577183, -0.475323], [-1.987963, 0.534156], [-0.153559, -0.378869], [-0.019157, -1.32061], [-1.578062, -0.030044], [0.034507, -0.761095], [0.675481, -1.42689], [-0.47014, 1.364819], [0.445409, 0.964505], [-0.660183, -0.118563], [-1.347884, 0.872981], [-0.714656, -0.18255], [-0.709998, 1.360132], [-1.561618, 0.804831], [-0.364834, 1.927443], [0.368558, -0.407646], [0.739209, -1.03092], [-1.696747, 0.2134], [1.63401, -0.632236], [0.308099, -1.119931], [-1.393186, 0.679496], [1.205502, -1.344832], [-0.140889, 0.448396], [1.062601, -1.394253], [1.534257, -1.542022], [-0.681786, 1.140267], [1.509553, -1.300287], [1.121429, -0.646393], [-0.358661, -1.084597], [0.33642, 0.56102], [-0.668657, 1.119077], [0.557439, -1.29232], [1.728332, 0.144061], [-0.684722, -0.283655], [-0.25345, 1.157659], [-1.178668, 1.164084], [-0.316111, -0.474072], [-0.00522, -0.50426], [-0.325419, 0.615498], [1.627495, 0.034936], [1.199219, -1.239402], [0.576699, -1.53533], [1.475909, 0.283979], [0.531658, 0.768782], [0.589828, -1.063101], [1.321061, -0.639618], [-1.535898, 0.536436], [-0.523117, 1.421333], [0.037729, 1.031227], [-0.458871, 1.396241], [1.031648, -0.949441], [1.697143, -0.392949], [-1.242969, 0.470696], [-1.402969, 0.887462], [1.64922, -0.222952], [-0.16071, -1.601505], [-0.089212, 1.21951], [-0.591405, -0.45813], [1.789709, -0.039487], [-1.217348, 1.414167], [1.563899, 0.433367], [-1.220426, 1.190691], [0.239634, 0.85192], [1.830491, 0.661648], [0.05055, 0.837031], [-1.152075, 1.233078], [1.580682, 0.673508], [-0.000898, -1.324737], [0.003423, 1.035865], [0.663871, -0.94927], [1.446076, -0.58383], [1.661793, 0.120036], [-0.511962, 1.338693], [-1.178417, 0.902866], [-0.622093, 1.763309], [-0.714592, -0.304827], [-0.286297, -0.122129], [1.934764, -0.754124], [0.470662, 0.007919], [-0.101986, 1.017093], [-0.609529, 0.629589], [-0.39975, 1.598666], [-0.513063, 0.119171], [0.126664, 1.140896], [-1.81211, 0.013078], [0.496207, -0.3516], [0.260833, 0.078125], [-0.72943, 1.757821], [-0.188764, -1.403907], [-0.512523, -0.252931], [-0.813683, 0.006778], [-0.665928, 1.249285], [0.061556, -1.63749], [1.253944, -1.143051], [1.904917, 0.507525], [-1.447088, 0.75251], [-0.08337, 1.248573], [-1.205511, 0.892076], [-0.466724, -0.769769], [-1.049029, 1.102171], [1.700215, -0.211529], [0.890509, -1.517061], [-0.050688, 1.310408], [-1.923523, 0.332638], [1.015204, -0.271454], [-1.735515, 0.50405], [1.69743, 0.428098], [1.551345, -0.268021], [1.33117, -0.000968], [-0.591877, 1.561769], [1.284944, -0.75793], [-0.749528, 1.240595], [0.600982, -1.591151], [0.701906, 0.200271], [-1.780845, 0.787496], [-1.535787, 0.423614], [0.144784, -1.226652], [1.807023, -0.621442], [-0.313758, 0.834126], [-0.907605, 0.930655], [-0.410398, -0.898254], [0.624064, -1.206864], [-0.64873, -0.242404], [-0.01987, -0.966783], [1.684368, -0.547099], [-1.567158, 0.505569], [-0.886066, 1.556029], [-0.59601, 0.803018], [-0.084641, -1.291453], [-0.599192, 1.70855], [-1.452474, 0.98153], [-0.866933, 1.042882], [1.427908, -1.028744], [0.307825, 1.102828], [1.465223, 0.759375], [1.622378, -0.464932], [0.236284, -1.376489], [0.013796, -1.257692], [1.279894, -0.704724], [0.107616, 0.10972], [-0.413793, 0.251828], [-1.47323, 0.463056], [-1.266218, 0.364348], [0.399693, -1.211416], [-1.48444, 0.564322], [-0.910473, 0.991177], [1.203196, -1.309107], [0.272724, 0.5127], [1.218379, -0.943606], [0.560181, 0.100917], [0.116986, 0.290524], [-0.014709, -0.89925], [0.823802, -0.861642], [-0.531677, 0.312243], [-1.482662, 0.429405], [-0.465044, 0.604947], [-0.004147, 1.355214], [-1.314779, 0.763813], [-1.64479, -0.992314], [1.454214, -1.77357], [0.276687, 1.655568], [-0.953486, 1.419518], [-1.569066, -0.527651], [-0.859723, 1.253436], [0.208424, 0.466878], [0.27386, 0.710259], [1.585045, -0.155197], [-0.412757, 1.031628], [-1.649283, -0.281329], [1.560199, -0.430112], [-0.601034, 0.425885], [1.275822, -0.902827], [1.602067, -0.270158], [0.378671, 0.457895], [1.576938, 0.527034], [-1.821756, -0.193326], [0.336314, 0.343849], [-0.480248, 0.590693], [1.870827, 0.168156], [1.436392, -0.473691], [-0.435862, 0.215039], [0.492696, 0.45858], [-0.324933, 1.544466], [-0.65838, 1.129826], [-0.323712, -1.267968], [0.506288, -1.910166], [-0.526465, 0.196353], [-0.846454, 1.240461], [0.460744, 0.312635], [1.766644, 0.88637], [-2.021291, 0.222942], [1.583198, -0.625342], [-0.957823, 1.313661], [0.817713, -0.261536], [-0.450848, -0.333238], [0.125351, -1.702856], [1.157685, -2.008242], [0.391041, -0.337503], [-0.237616, -0.840145], [1.495684, -0.258096], [-1.580611, 0.50668], [1.448593, 0.301348], [0.313909, -1.06108], [0.257031, -1.569121], [0.705739, 0.071038], [1.031967, -1.191379], [0.054228, 1.053408], [0.911184, -1.630654], [-0.821817, 0.030342], [0.311926, -0.175019], [2.092772, 0.331521], [0.005035, 1.48895], [0.985341, -1.385765], [-2.064201, -0.215564], [-1.378127, 0.952797], [-1.06117, 1.103994], [0.062541, -1.362887], [-0.359565, -0.34267], [0.49474, -0.408647], [-0.822684, 0.524833], [-0.788904, 1.328672], [0.432512, -0.739321], [-0.270558, -0.940402], [-1.226674, 1.672852], [-1.77, -0.375421], [-0.663921, 1.580183], [-1.443124, 0.118434], [0.051381, 1.260179], [1.731624, -0.114073], [0.462456, -0.377509], [-0.379515, 0.216474], [-0.23444, -0.710319], [-1.016098, 2.082344], [0.100717, 1.178231], [-1.237047, 2.016654], [0.628934, -1.141545], [0.646139, -1.633521], [-0.334183, -1.229655], [-1.825386, -0.51541], [-0.581524, -0.279412], [1.320229, -0.674432], [1.909889, -0.192529], [-0.386679, -1.470655], [0.676476, -1.525931], [-0.94579, 1.05895], [1.661738, -0.750929], [1.640962, -0.661556], [-1.025854, 1.287582], [-0.387732, 1.282683], [0.003913, 1.231311], [0.93664, -1.832952], [1.715034, -0.294098], [-1.649774, 0.124855], [-1.250865, 0.043671], [-1.137247, 0.956541], [-0.201455, 1.513973], [-1.712974, 0.143175], [0.500041, -0.076196], [0.013928, 0.374338], [-0.243766, -0.94109], [0.066954, -1.58949], [0.188494, 0.747575], [-0.252238, 1.2772], [-0.750211, 0.192372], [1.250913, -1.51211], [-1.402036, 1.148151], [1.270023, 0.230371], [-0.091435, 1.766809], [-1.294289, 0.380288], [0.689908, 0.588154], [-0.335271, -0.214411], [1.688327, -0.337037], [1.626286, 0.257829], [-1.390297, 1.184883], [-1.554397, 0.873741], [1.775945, -0.694324], [1.260306, -0.923608], [-1.075603, 1.054406], [0.457383, 0.501783], [-0.945538, -1.413327], [-0.368212, -0.849298], [-0.41216, 0.84852], [0.301048, -1.049528], [-0.07801, 1.619518], [0.076323, 0.302112], [-0.066641, 1.134646], [-1.470509, 0.456076], [1.65708, -0.304929], [-0.079368, -1.464644], [-1.272655, 1.091844], [1.603929, 0.044251], [1.051993, -1.825048], [-0.577604, 0.342932], [0.324132, 0.507294], [0.013715, 0.814295], [1.438807, 0.766459], [-0.025965, 0.919891], [-1.170034, 1.005978], [-1.698186, 1.815612], [-1.509984, 0.888898], [1.514225, -0.91808], [0.114834, -0.680043], [-1.827041, -0.469243], [0.98467, -1.292695], [0.09073, -1.282805], [1.388424, -0.810245], [-1.794738, 0.663517], [0.053365, 1.542007], [1.069724, -1.286155], [-0.725457, -0.113327], [1.886298, 0.451406], [1.722088, -0.511765], [-1.488272, -0.781406], [1.482358, -1.77306], [-1.280921, 0.566451], [-0.566579, 1.399658], [0.094141, -1.198895], [0.139534, 1.040164], [1.381692, -0.343414], [1.022492, -1.004585], [0.306422, -0.972243], [0.395534, -1.883996], [1.36111, 0.118661], [0.7151, -0.088943], [0.399235, 0.952491], [1.057925, -1.273111], [0.443387, -0.182], [1.535978, 0.00803], [-0.644574, -0.955914], [-1.675058, 0.697802], [0.719266, -1.177404], [0.876392, -0.928391], [-1.62337, 1.107218], [-0.47702, -0.117342], [0.412042, -1.304024], [-1.314475, 1.045618], [1.504289, 0.129139], [0.520878, -1.576844], [-1.416854, 0.538033], [-1.34909, 1.309159], [-1.623778, -0.506227], [-0.967742, 1.580681], [-1.41668, 0.273658], [-0.69729, 0.534261], [1.394769, -0.191644], [0.060414, 1.351135], [-0.493552, 1.525229], [-1.488557, 0.457772], [1.943667, 0.153607], [-0.299865, -0.798947], [-0.371025, 1.50289], [0.525642, -1.687141], [0.37113, 1.064713], [0.486407, -1.47163], [-0.88274, 0.055925], [0.287395, -1.291955], [1.806732, -0.798587], [-1.479567, 0.889691], [-1.607319, 0.911513], [-0.457813, 1.327257], [-1.730083, -0.118502], [0.042602, 1.272235], [0.001726, -0.943691], [-0.77384, 1.99233], [-0.086843, -1.043125], [-0.334254, 1.49979], [1.704277, -0.645338], [1.379211, -0.526781], [1.340809, -1.077986], [1.545492, -0.114886], [-1.339673, 1.097643], [-0.412997, -0.085275], [0.489104, 0.601738], [0.259409, 0.647536], [-0.023166, -1.073046], [-0.190918, -0.794178], [-0.570862, -0.285379], [-0.075979, -0.578844], [0.712305, -1.482592], [-0.084853, 1.048125], [0.849339, -1.041302]], "y": [1, 0, 1, 1, 1, 1, 0, 1, 1, 1, 0, 0, 0, 1, 1, 0, 1, 1, 1, 0, 0, 1, 1, 0, 1, 1, 0, 0, 1, 0, 1, 0, 0, 0, 0, 1, 0, 1, 1, 0, 1, 1, 1, 1, 1, 1, 1, 1, 0, 0, 1, 1, 1, 0, 0, 1, 1, 1, 1, 1, 1, 1, 0, 1, 1, 0, 0, 0, 0, 1, 1, 0, 0, 1, 1, 0, 1, 1, 0, 1, 0, 0, 1, 0, 0, 1, 1, 0, 1, 1, 1, 0, 0, 0, 1, 1, 1, 0, 0, 1, 0, 1, 0, 0, 0, 0, 0, 1, 1, 1, 0, 1, 1, 1, 0, 0, 0, 1, 0, 1, 1, 0, 0, 0, 0, 1, 1, 1, 0, 1, 0, 1, 0, 0, 0, 1, 1, 0, 0, 1, 1, 1, 1, 1, 0, 0, 1, 1, 0, 0, 0, 1, 0, 1, 1, 1, 1, 1, 0, 1, 0, 0, 1, 0, 0, 1, 0, 1, 0, 0, 1, 1, 1, 0, 1, 0, 0, 0, 1, 0, 0, 0, 0, 0, 0, 1, 0, 0, 1, 1, 1, 1, 0, 1, 0, 0, 0, 1, 1, 1, 0, 0, 0, 1, 1, 1, 0, 0, 1, 0, 1, 0, 0, 1, 1, 1, 0, 1, 1, 0, 1, 1, 1, 0, 1, 0, 1, 1, 0, 1, 0, 1, 0, 0, 0, 1, 1, 0, 0, 0, 1, 1, 0, 0, 0, 0, 0, 1, 0, 1, 1, 0, 0, 0, 1, 1, 1, 0, 1, 1, 1, 1, 1, 0, 1, 1, 0, 0, 0, 1, 1, 0, 0, 0, 0, 0, 0, 0, 1, 1, 0, 0, 1, 1, 0, 1, 0, 0, 0, 1, 1, 1, 0, 0, 1, 1, 0, 0, 1, 1, 0, 1, 0, 0, 0, 0, 1, 1, 0, 1, 1, 1, 0, 0, 1, 0, 0, 0, 0, 1, 1, 0, 1, 1, 1, 0, 0, 1, 1, 1, 1, 0, 1, 0, 0, 1, 0, 1, 1, 1, 1, 1, 0, 0, 1, 0, 1, 1, 0, 1, 1, 0, 1, 1, 0, 1, 1, 0, 0, 0, 0, 0, 1, 1, 0, 0, 0, 1, 1, 0, 1, 0, 1, 1, 1, 1, 0, 0, 0, 0, 0, 1, 0, 1, 0, 1, 1, 1, 1, 0, 1, 0, 0, 1, 1, 1, 1, 1, 0, 1], "proj": [[1.291074, -1.688632], [-3.402854, -0.607539], [0.951686, -1.683258], [3.502162, 1.31767], [1.823285, -1.973482], [-0.025475, -2.341752], [-0.275008, 2.062888], [3.222775, -0.050327], [0.662382, -1.601129], [0.392264, -1.737547], [-3.538018, 0.146512], [-2.65541, 0.461668], [-3.092707, 0.975994], [3.001685, -0.845862], [-0.042408, -1.619795], [-2.158692, 1.450181], [-0.205607, -2.238894], [3.650752, 1.071224], [3.312121, 0.145612], [-2.951695, -1.584039], [-3.806053, -0.470442], [-0.216496, -1.261723], [0.479524, -2.438683], [-3.236156, -1.04297], [0.297947, -1.601955], [2.41501, -1.218012], [-1.91076, 1.615087], [0.113368, 1.957746], [-1.179091, -1.358646], [-3.340997, 0.121748], [-1.234771, -1.472276], [-2.381767, 1.32009], [-3.553236, -0.055446], [-1.756255, 2.556776], [0.742274, -0.041965], [2.569789, -0.551248], [-3.470913, -0.764005], [3.659265, 0.484412], [1.130425, -1.616942], [-3.348664, -0.136513], [3.313814, -0.547388], [-0.561947, 0.329312], [3.145585, -0.720917], [3.587611, -0.521871], [-2.238617, 0.932846], [3.584666, -0.278913], [3.190005, 0.206264], [-0.221813, -2.445941], [0.238771, 1.259228], [-2.195426, 0.899173], [2.041134, -1.242801], [3.566087, 1.208929], [-1.132888, -1.597375], [-1.370288, 1.503571], [-3.158057, 0.600846], [-0.443702, -1.6169], [0.093583, -1.214979], [-1.046038, 0.18186], [3.523311, 1.092112], [3.311348, -0.430539], [2.107095, -1.578399], [3.27584, 1.293824], [0.424979, 1.712626], [2.05531, -0.792471], [3.404887, 0.318574], [-3.455619, -0.355126], [-2.031132, 1.647548], [-0.707624, 1.670436], [-1.897363, 1.686015], [3.107515, -0.206727], [3.673937, 0.735665], [-3.086514, -0.357273], [-3.407054, 0.112459], [3.609222, 0.869843], [0.323507, -2.834944], [-1.077047, 1.863493], [-0.894036, -1.790162], [3.666282, 1.070933], [-3.208697, 0.903987], [3.281123, 1.445289], [-3.21654, 0.606125], [-0.179841, 1.58379], [3.391631, 1.657226], [-0.530421, 1.291681], [-3.123747, 0.715284], [3.123181, 1.681676], [0.51693, -2.423293], [-0.778017, 1.631865], [2.286151, -0.504161], [3.510049, 0.439828], [3.52193, 1.174631], [-1.986187, 1.513726], [-3.122098, 0.245515], [-2.233654, 2.039753], [-1.170686, -1.637633], [-0.559353, -1.029016], [3.849038, 0.52039], [0.780222, 0.717346], [-0.970353, 1.432477], [-1.562677, -0.143045], [-1.815799, 2.089712], [-1.060994, -0.908684], [-0.607105, 1.987881], [-3.462547, -1.004022], [0.961274, 0.281543], [0.382147, 0.500945], [-2.422893, 1.899632], [0.202411, -2.673345], [-0.870887, -1.458745], [-1.507858, -1.247155], [-2.262659, 1.166117], [0.746933, -2.671995], [3.368898, -0.28073], [3.544827, 1.529044], [-3.427098, -0.069121], [-1.080629, 1.924587], [-3.159279, 0.217328], [-0.54355, -2.131255], [-2.954174, 0.604201], [3.643799, 0.897549], [2.878496, -1.039798], [-1.045587, 2.073779], [-3.693602, -0.664235], [2.943643, 0.594518], [-3.620304, -0.444249], [3.413761, 1.448876], [3.543139, 0.793441], [3.254606, 0.983896], [-2.181786, 1.789508], [3.382959, 0.170846], [-2.427799, 1.067482], [2.175142, -1.60617], [1.085122, 1.156814], [-3.732382, -0.157898], [-3.414646, -0.488561], [0.781947, -2.109027], [3.769655, 0.577983], [-1.207629, 0.656525], [-2.618828, 0.397695], [-0.392425, -2.258275], [2.253097, -0.97259], [-1.095894, -1.52477], [0.310557, -1.999084], [3.685145, 0.58903], [-3.475116, -0.399847], [-2.704341, 1.433462], [-1.7044, 0.22573], [0.34318, -2.472466], [-2.195481, 1.994091], [-3.474856, 0.198996], [-2.58848, 0.617463], [3.525031, -0.038658], [-0.239803, 2.09367], [2.886547, 1.789962], [3.631816, 0.637932], [1.061658, -2.137765], [0.517781, -2.330122], [3.372501, 0.226318], [0.092705, 0.269724], [-0.965048, -0.591065], [-3.365934, -0.425781], [-3.075732, -0.503042], [1.46273, -1.51596], [-3.413115, -0.306915], [-2.659101, 0.505113], [3.313078, -0.508032], [0.159117, 1.11619], [3.328769, -0.076914], [0.892774, 0.92846], [0.022125, 0.566135], [0.284337, -1.895374], [2.746861, -0.241927], [-1.199509, -0.623674], [-3.362996, -0.468992], [-1.281468, -0.040236], [-0.97454, 2.201156], [-3.276849, -0.000105], [-2.641961, -2.169274], [3.503242, -0.827087], [-0.593316, 2.823737], [-2.820112, 1.161112], [-2.90717, -1.647422], [-2.644049, 0.989518], [0.075315, 0.963693], [0.005147, 1.39721], [3.54393, 0.909358], [-1.584234, 0.979326], [-3.150087, -1.347355], [3.580212, 0.643892], [-1.391053, -0.499359], [3.384739, 0.005004], [3.583505, 0.810195], [0.386283, 1.170786], [3.232966, 1.535884], [-3.35131, -1.240386], [0.382732, 0.973374], [-1.297188, -0.085692], [3.661229, 1.256627], [3.485852, 0.546629], [-0.982329, -0.678085], [0.583969, 1.284114], [-1.662358, 2.10407], [-2.180942, 0.931263], [-0.082709, -2.622194], [1.833485, -2.237896], [-1.124882, -0.801952], [-2.616488, 0.97942], [0.61679, 1.077248], [3.146102, 1.873562], [-3.710667, -0.791437], [3.622368, 0.466023], [-2.824768, 0.997057], [1.546331, 0.742549], [-0.73128, -1.52864], [0.892885, -2.659105], [3.182113, -1.318641], [0.762302, 0.117327], [-0.137524, -2.060986], [3.494678, 0.782303], [-3.488134, -0.40213], [3.236526, 1.30777], [1.099569, -1.504346], [1.16396, -2.329351], [1.156463, 1.021901], [3.113795, -0.501569], [-0.690805, 1.73682], [2.898418, -1.156566], [-1.536267, -1.216606], [0.565964, 0.215651], [3.747474, 1.414342], [-1.009218, 2.408781], [3.041053, -0.779671], [-3.510023, -1.26046], [-3.389585, 0.204444], [-2.974447, 0.598696], [0.660425, -2.390435], [-0.577876, -1.463094], [0.979524, 0.198105], [-1.901171, -0.447337], [-2.525421, 1.183312], [1.006192, -0.482854], [-0.144145, -2.217361], [-3.187749, 1.22833], [-3.19426, -1.452474], [-2.316062, 1.728508], [-3.177786, -0.847783], [-0.821292, 2.109504], [3.644313, 0.991712], [0.908097, 0.188512], [-0.887368, -0.603324], [-0.19539, -1.879732], [-2.813702, 1.949801], [-0.679921, 2.024907], [-3.125616, 1.627078], [2.252804, -0.860314], [2.301758, -1.571102], [-0.116634, -2.588622], [-3.145857, -1.608665], [-0.968623, -1.540328], [3.408304, 0.280818], [3.775549, 0.983095], [-0.103435, -2.843267], [2.406032, -1.359437], [-2.758872, 0.602358], [3.687259, 0.383504], [3.666663, 0.459591], [-2.934898, 0.897223], [-1.712363, 1.568885], [-0.89868, 2.004673], [2.905068, -1.366036], [3.670015, 0.830527], [-3.386732, -0.862159], [-2.894426, -0.928307], [-3.070491, 0.341051], [-1.413328, 2.21279], [-3.450547, -0.847128], [0.865298, 0.649495], [-0.213351, 0.513752], [-0.098979, -2.197116], [0.744711, -2.620355], [-0.187515, 1.344296], [-1.434765, 1.746265], [-1.505368, -0.958243], [3.348807, -0.701958], [-3.435354, 0.426611], [3.062327, 1.214729], [-1.255145, 2.663766], [-3.120964, -0.487633], [0.832857, 1.575171], [-0.598755, -1.240654], [3.658984, 0.782319], [3.435353, 1.289717], [-3.42379, 0.478694], [-3.559714, 0.025184], [3.756304, 0.495968], [3.370518, -0.027875], [-2.99014, 0.516638], [0.494576, 1.305631], [-1.193143, -2.823621], [-0.347729, -2.17237], [-1.400628, 0.540896], [1.056381, -1.519359], [-1.201995, 2.498776], [-0.057398, 0.513287], [-0.982441, 1.731641], [-3.360435, -0.433568], [3.631195, 0.799156], [0.421297, -2.646363], [-3.278385, 0.440878], [3.50067, 1.09464], [3.080212, -1.228273], [-1.29667, -0.615812], [0.255615, 1.17303], [-0.581212, 1.186129], [2.838537, 1.803367], [-0.747041, 1.340555], [-3.128462, 0.390876], [-3.664497, 0.949431], [-3.519538, 0.062771], [3.590405, 0.131956], [0.392188, -1.289825], [-3.178398, -1.556041], [3.045276, -0.66569], [0.687595, -2.260484], [3.482817, 0.172867], [-3.713365, -0.290307], [-0.938223, 2.526254], [3.160382, -0.585707], [-1.289538, -1.381739], [3.558557, 1.48273], [3.706197, 0.638679], [-2.637849, -1.958411], [3.52546, -0.805163], [-3.174572, -0.241439], [-2.11186, 1.555757], [0.65733, -2.152146], [-0.515961, 1.81725], [3.411451, 0.654443], [3.098016, -0.280404], [0.994442, -1.365885], [1.53704, -2.426735], [3.235064, 1.111969], [1.249088, 0.856001], [0.038258, 1.905566], [3.145841, -0.579661], [0.805293, 0.433146], [3.45433, 1.044731], [-0.743979, -2.418428], [-3.62861, -0.216083], [2.534668, -0.78691], [2.861557, -0.29137], [-3.65069, 0.246957], [-0.880796, -1.233148], [1.542879, -1.631389], [-3.326105, 0.35575], [3.378993, 1.150395], [1.924476, -1.769974], [-3.331496, -0.318465], [-3.376994, 0.66054], [-2.97568, -1.616828], [-2.833491, 1.378735], [-3.224612, -0.648142], [-1.648613, -0.381351], [3.38582, 0.811256], [-0.848691, 2.264424], [-1.990444, 1.856908], [-3.379977, -0.436095], [3.713722, 1.259596], [-0.260663, -2.05845], [-1.746239, 1.979939], [1.926665, -1.913542], [-0.096568, 2.076794], [1.816035, -1.698521], [-1.666624, -1.193779], [1.16514, -1.922292], [3.780215, 0.41407], [-3.489135, 0.078054], [-3.614378, 0.043095], [-1.873053, 1.561527], [-3.321811, -1.153605], [-0.844562, 2.119669], [0.339091, -1.937289], [-2.46248, 2.137004], [0.224886, -2.180323], [-1.672704, 2.02279], [3.707685, 0.50645], [3.443376, 0.466054], [3.450768, -0.148827], [3.500612, 0.933832], [-3.361054, 0.405104], [-0.790757, -1.124666], [0.479211, 1.459153], [0.030524, 1.287444], [0.358697, -2.146593], [-0.081218, -1.954211], [-0.948461, -1.542442], [0.008864, -1.47907], [2.506917, -1.235791], [-0.95993, 1.526539], [2.820143, -0.462211]], "kcount": [24, 17, 25, 15, 18, 18, 23, 20, 26, 23, 19, 28, 22, 22, 22, 20, 18, 15, 19, 17, 15, 27, 19, 17, 25, 24, 21, 24, 21, 21, 22, 21, 18, 16, 22, 31, 16, 15, 26, 20, 19, 37, 21, 17, 30, 17, 20, 18, 19, 31, 21, 15, 22, 25, 22, 20, 29, 34, 15, 19, 22, 17, 21, 39, 17, 18, 19, 26, 20, 22, 15, 24, 20, 15, 19, 22, 20, 15, 21, 17, 22, 26, 16, 33, 23, 18, 19, 26, 37, 16, 15, 21, 24, 18, 22, 28, 15, 20, 27, 25, 18, 20, 22, 15, 24, 23, 19, 19, 19, 26, 24, 19, 19, 15, 19, 22, 23, 18, 25, 15, 22, 21, 15, 24, 16, 16, 15, 17, 19, 18, 22, 22, 22, 16, 18, 21, 15, 28, 33, 18, 27, 21, 20, 15, 17, 21, 29, 19, 18, 19, 27, 17, 23, 21, 15, 21, 20, 18, 26, 27, 19, 23, 26, 18, 26, 19, 21, 19, 20, 25, 21, 30, 21, 18, 24, 20, 21, 17, 18, 16, 22, 17, 24, 23, 23, 15, 30, 16, 16, 22, 18, 15, 18, 17, 15, 19, 23, 14, 16, 25, 18, 18, 31, 19, 17, 21, 23, 18, 18, 15, 16, 23, 65, 18, 19, 19, 19, 18, 16, 17, 17, 28, 20, 23, 21, 25, 21, 26, 23, 14, 18, 22, 15, 20, 24, 20, 21, 24, 34, 22, 29, 18, 20, 16, 20, 19, 21, 15, 23, 29, 19, 18, 22, 18, 29, 22, 19, 15, 20, 17, 14, 20, 23, 25, 16, 15, 23, 23, 22, 20, 15, 16, 24, 24, 18, 16, 21, 30, 18, 19, 26, 22, 24, 19, 20, 19, 16, 22, 21, 23, 15, 15, 20, 18, 15, 18, 25, 18, 36, 17, 27, 28, 17, 27, 24, 19, 15, 19, 21, 15, 20, 21, 19, 36, 22, 30, 23, 18, 18, 16, 30, 15, 22, 20, 17, 16, 17, 21, 23, 15, 15, 19, 18, 22, 20, 21, 25, 16, 22, 31, 17, 17, 26, 25, 21, 21, 16, 22, 17, 28, 26, 18, 19, 22, 21, 16, 20, 19, 20, 17, 21, 19, 26, 16, 19, 19, 18, 14, 17, 18, 19, 23, 19, 30, 22, 15, 19, 18, 22, 16, 21, 21, 18, 19, 18, 15, 17, 18, 15, 21, 22, 19, 22, 19, 19, 20, 25, 24, 26, 26]}, "metrics": {"train_acc": 0.987000048160553, "test_acc": 0.9824999570846558, "jnorm_mean": 0.6653780341148376, "jnorm_max": 0.9226081967353821, "residual": 3.7214232406768133e-07, "effective_depth": 79, "acc_depth": 6}}