{"dims": {"d_in": 2, "d": 32, "m": 24, "ncls": 3}, "solver": {"beta": 0.7, "tol": 0.0001, "max_iter": 120}, "params": {"W": [[0.660785, -0.561092, -0.430754, -0.773432, -0.688122, 0.493151, 0.388427, -0.57183, 0.963019, -1.109349, -0.808943, 0.125739, -0.63275, 0.466118, 0.555544, 0.255224, 0.308613, -0.238822, 0.492169, 0.398347, -0.438778, -0.456759, 0.487681, 0.6109, 0.638375, -0.132585, 0.713272, 0.90347, -1.562016, 0.291326, 1.051281, -0.724415], [-0.339986, 1.143387, 0.501359, 0.045979, -0.876278, -0.543352, -1.018502, 1.01706, 0.664432, 0.351646, -0.082817, 0.521598, -0.264019, -0.327519, 0.452166, -0.105031, 0.276076, 0.276277, -1.060337, 1.431443, 0.523394, 1.000037, 1.125881, -0.276958, 0.619965, -0.870048, 0.575708, -0.257532, 0.187278, 0.296849, -0.526691, 0.189924], [-1.249043, -0.662877, -0.042831, 1.548428, -0.865748, -0.381669, -0.808766, -0.818369, -0.160433, 0.991277, 0.616068, 0.220185, 0.286111, 0.329416, 0.561166, -0.009119, -0.479055, 0.990722, 0.132279, -0.998827, -0.417594, 1.150763, -0.070985, 1.7319, -0.368323, 0.82848, -0.367232, 0.631848, 0.056091, 0.127092, 1.055259, -0.177859], [-0.369218, 0.42342, -0.202723, -0.780249, -1.576155, 0.308157, -0.265099, 1.209625, -0.671145, 0.720012, -0.228778, -0.67288, 0.20889, -0.293028, 0.405219, 0.500736, 0.009537, 0.996993, -1.114282, 0.424754, 0.527261, 0.277691, 0.815653, -0.213579, -0.836158, 0.112755, 0.031365, 0.834506, 0.608014, -0.199786, 0.588401, -0.231398], [-0.50978, -0.443335, 0.224006, 0.547413, 0.32514, -0.544137, -0.459427, 0.425564, -0.52373, 1.717927, -0.458669, -0.005674, 0.73985, -0.044308, -0.758756, -0.138415, -0.686821, 0.241063, -1.045601, 0.158495, -0.231865, -0.505366, 0.00378, -0.78187, 0.205947, -0.59107, -0.922004, -0.440962, -0.496529, 1.023833, 0.223541, -0.8459], [0.285652, -1.159637, 0.246913, -0.356017, -0.775587, -0.126519, 0.379496, 0.115155, -1.021736, 0.680825, -0.312326, -0.531632, -0.823247, 0.427411, -0.006607, 0.561088, -0.660802, 0.61972, 0.522745, -0.20365, -1.479223, -0.22564, -0.743079, 1.599789, 1.095438, -0.632598, 0.292984, 0.406627, -0.107236, 0.765145, 0.103802, 0.709943], [0.299869, 0.500034, 1.258702, -0.8535, 0.249104, -0.845639, -0.666123, -0.922722, -0.408299, 0.190371, 0.55498, -0.395572, -0.63696, -0.484182, -0.50447, -0.148849, -1.363792, -0.397142, 0.211586, 0.374383, 0.159641, 0.384788, 0.71329, -0.642945, 1.255547, -1.019479, -0.460414, 0.512576, -0.252764, -0.492426, 0.040513, -0.057397], [0.045341, 1.032444, -0.58095, -0.468905, -0.367928, -0.017596, -0.649215, 0.026736, -0.350304, 0.482867, 0.175928, -0.022883, -0.443286, -0.385035, -0.183282, 0.219945, -0.209921, -0.864928, -0.404964, 0.318197, -0.090545, -0.475482, 0.455622, 0.245578, -0.47128, 0.181639, 0.057975, 0.238906, 1.117072, -0.569325, 0.186688, 0.042308], [0.518965, 0.350763, -0.039347, -0.391858, 1.188272, -0.342307, 0.450748, -0.127875, -0.462783, -0.953653, 0.397472, 0.231726, 0.318775, -0.900772, 0.312405, 0.298996, -0.452815, 0.65089, 0.077738, 0.251044, -0.276945, 0.131212, 0.690825, -0.123141, 0.324677, 0.225659, -0.167397, -0.269159, -0.105241, 0.423638, -0.264097, 0.158093], [0.121858, 0.957557, 0.209671, -0.45168, -0.111365, -0.712905, 0.372181, 0.875262, 0.773699, 0.732297, -0.234244, 1.001748, -0.427952, 0.061042, 0.171049, -1.154387, 0.337293, -0.684717, 0.678069, -0.154966, 0.508707, -0.627628, 0.541981, -0.008888, -0.318761, -0.024406, -0.38778, -0.436641, 0.020168, -0.396616, -0.204871, 0.502622], [0.949763, -0.411644, -0.295251, 0.156604, 0.285539, -0.346387, -0.472951, -1.214463, 0.23508, 0.247551, 0.057261, 0.704362, 0.324879, -0.343808, -0.550987, -0.341228, 0.588361, 0.275446, -0.707092, 0.105486, 0.078559, -0.227279, 0.826697, 0.800127, -0.462939, 0.31276, 0.330962, -0.418214, 0.585791, -0.061975, 0.426943, 0.126156], [-0.801755, -0.628917, 0.229477, -0.420352, 0.766428, -0.745422, 0.595024, 0.112657, 0.039038, -0.28738, 0.319894, -0.618278, -1.243411, -0.145461, -0.84285, 0.637299, -0.79587, 0.079883, 0.1977, -0.119174, -0.021034, -0.572649, -0.707221, -0.725351, 0.736918, -0.719146, -0.796612, -0.013075, 0.360552, -0.04728, 0.401715, 0.374766], [-0.594094, -0.514621, -0.455511, 0.182147, -0.053595, 0.347707, -0.725947, -0.540606, -0.372069, 0.675535, -0.020971, 0.570185, 0.495849, 0.891063, -0.265368, 0.668585, 0.208677, -0.504484, -0.254204, 1.362622, -0.466925, -0.649767, -0.442031, -0.347423, -0.262262, -0.20459, 0.383925, -0.018368, -0.775699, -0.278235, 0.021325, 0.391909], [0.074018, -0.608359, -0.033344, 0.342186, -0.555892, -0.705975, -0.220345, -0.050844, -0.443495, 0.399823, -0.59856, -0.070947, -0.268683, 0.420201, 0.897055, 0.208919, 0.164359, -0.199988, -1.131096, -1.100493, 0.54149, -0.152026, 0.28339, -0.001981, 0.361473, 0.117945, -1.263016, -0.379315, -1.370165, -0.914069, -0.205719, -0.341676], [-0.415294, -0.076733, -0.710557, 1.379122, 0.208092, -1.028224, 0.045708, 0.643268, 0.127717, -0.751148, 1.080669, -0.03539, 0.418021, 0.363135, -0.449382, -0.223281, -0.126875, -0.289885, -0.900549, 0.873961, 0.178992, 0.399027, -0.567145, -0.0266, 0.047791, -0.249339, -0.455924, 0.158563, 0.067203, -0.458949, -0.656655, -0.508121], [0.617664, -0.379816, 0.492887, -0.639607, 1.0175, -0.628608, 0.903915, -0.648194, 0.092927, 0.934282, -0.030913, -0.888008, -0.467287, -0.308388, 0.035097, -1.787523, 0.243596, 0.161011, 0.220702, -0.731437, 0.156641, -0.173456, -0.800426, 0.573824, -0.387881, -0.37351, 0.225146, -0.603728, -0.445956, 0.136992, -0.098667, -0.5388], [0.210314, 0.05025, 0.388482, 0.195214, 0.093052, 0.204198, -0.56774, 0.42, -0.723411, 0.447555, -0.174286, 0.38241, -0.168785, -0.236469, -0.571336, 1.01506, 0.169999, 0.216213, 0.039445, 0.60326, 1.307524, -0.71779, -0.402024, 0.253666, 1.177756, -0.807331, -0.591367, 0.001674, 1.422182, -0.13116, -0.111764, -0.153848], [-0.081417, 0.011289, 0.784925, -0.396328, 0.58684, -1.093755, -0.006489, 0.099228, -0.160531, -0.371966, 0.555996, -0.276314, -0.154542, 0.745616, 0.424678, 0.473368, 0.169269, 0.29557, 0.524852, -0.630299, -0.119699, 0.110372, -0.234874, 0.305102, -0.80414, 0.538086, -0.826771, 0.414143, 0.061474, 0.434676, 0.739668, 0.877162], [1.297567, -0.606116, 0.477356, -1.427645, 0.429924, -1.001203, -0.441432, -0.192736, -0.779106, 0.606882, -0.438943, -0.292863, 0.803371, -0.67874, -0.39103, -0.169252, -0.916863, -0.369849, -0.469999, -0.268334, -0.721079, 0.251189, -0.334821, -0.837049, 0.005104, -0.312277, -0.785864, -0.434826, 0.28427, 0.588781, -0.649177, 0.273452], [-0.632047, 1.501676, -0.914626, 0.099416, -0.348651, -0.159937, 0.055208, -0.752675, -0.434456, 0.340294, 0.054661, -0.753258, -0.538568, 0.684645, -0.687247, 0.007871, 0.282693, 0.623794, -0.621083, 0.37197, 0.489508, -0.158342, -0.349594, -0.191202, -0.117573, -0.373508, 0.344366, 0.43672, -0.233015, 0.009415, 0.401194, -0.250367], [-0.177484, -0.241385, 0.347391, 0.150508, 0.409202, 0.610239, -1.256746, -0.216811, -0.371419, 0.479382, -0.780932, -0.366612, -0.541038, -0.109854, -0.471685, 0.250218, 0.067403, 0.232476, 0.459713, -0.614817, -0.566026, -0.544744, 0.263883, -0.714284, 0.709944, 0.34296, -0.307876, 0.620196, 0.065548, -0.491356, -0.062478, -0.519117], [-0.043123, -0.66347, 0.310327, 0.116467, 0.247002, -0.183292, -0.616848, -1.466976, -0.383421, 0.133028, 0.640929, -0.323024, 0.69265, -0.049167, -0.059897, -0.060302, 0.084091, 0.265238, -0.059565, -0.002975, -1.074328, 0.999443, -0.972162, 0.038582, 0.143437, 0.460443, 0.550223, 0.637624, -0.141658, -0.34773, -1.636068, 0.227707], [1.005609, 1.191542, 0.12381, -1.260878, -0.648769, 1.116918, 0.51744, -0.666417, -0.412973, 0.097111, -0.326769, -0.101474, -0.388376, -0.395285, 0.160379, 0.355056, -1.008982, -0.500305, -0.205238, 0.215793, -0.015558, 0.768883, -1.233097, 1.103515, 0.491479, -0.111943, -0.056176, -0.791733, -0.25766, -0.264215, 1.004261, -0.11979], [-0.522152, 1.70173, 0.298081, 0.342333, -0.298134, 1.520895, -0.013933, 0.710866, -0.632618, 0.527531, -1.170736, -0.635694, 0.17222, -0.410789, -0.265692, -0.056373, -0.189553, 0.582121, 0.415257, 0.025059, 0.023512, 0.148216, 0.084369, 0.674445, 0.096429, 0.224788, -0.355589, -0.741862, -0.098193, -0.538954, 0.409976, 1.106525]], "A": [[0.068258, 0.102843, 0.060122, -0.015346, 0.144294, -0.073607, 0.025163, -0.259994, -0.020873, 0.105016, 0.027574, 0.030354, -0.038292, -0.073625, -0.008963, -0.030062, -0.160932, -0.053071, -0.036649, -0.166442, -0.046156, 0.028679, -0.102924, -0.083777], [-0.14859, -0.090153, 0.013413, 0.026811, -0.110096, -0.069373, -0.012432, -0.131557, -0.058799, -0.106241, 0.004006, -0.019695, -0.064975, -0.114263, -0.066955, -0.121801, -0.049582, -0.117779, 0.019208, -0.109494, -0.210074, -0.076549, 0.075219, -0.047998], [0.084338, 0.150318, 0.130425, -0.018607, -0.059186, -0.10869, -0.030865, -0.143524, 0.051203, 0.123269, -0.0116, 0.043356, -0.004565, -0.034281, 0.087173, 0.047859, 0.071329, 0.028946, 0.082703, -0.069679, 0.027058, 0.001455, -0.288002, 0.071848], [0.041656, -0.064282, -0.060677, 0.076502, 0.061042, 0.041839, -0.082488, 0.222746, -0.149572, 0.10889, 0.0146, 0.052, 0.009527, -0.016426, -0.050345, 0.055683, 0.010376, 0.018347, -0.029927, 0.046129, 0.062578, 0.100709, 0.370967, 0.083099], [-0.001179, -0.099308, -0.003712, 0.105324, 0.07804, 0.002295, -0.153801, 0.160853, 0.072714, 0.072177, 0.008012, 0.090878, 0.001778, -0.035056, -0.081545, 0.168052, -0.128617, 0.143054, 0.00634, 0.137479, -0.019005, 0.077561, 0.23243, -0.042939], [-0.212876, 0.020357, -0.061094, -0.150424, 0.103735, -0.018955, 0.026137, -0.055818, -0.165107, 0.038319, -0.069836, 0.092527, -0.063616, 0.005205, -0.128528, 0.083589, -0.204473, -0.012144, -0.071347, 0.090994, -0.047438, -0.046571, -0.422913, 0.195752], [-0.17221, -0.105515, -0.202088, -0.049989, -0.199996, 0.046736, -0.122679, -0.063486, -0.064391, 0.17782, -0.377527, -0.003718, -0.00441, 0.003305, -0.026482, 0.000568, -0.186087, 0.024877, -0.039265, 0.102444, -0.075708, -0.28296, -0.591274, 0.157401], [-0.091051, -0.035241, 0.043812, -0.198995, -0.19821, -0.086606, -0.099936, 0.168214, 0.029242, -0.38899, -0.167231, 0.013901, -0.018144, 0.060611, 0.046682, 0.120928, 0.107996, -0.068848, 0.037204, -0.07615, 0.019492, -0.111106, 0.166828, 0.17956], [0.166569, -0.02344, -0.117263, -0.082847, 0.055516, -0.094093, 0.086323, -0.112421, -0.021248, -0.237773, -0.009674, -0.093003, -0.001685, 0.050843, -0.073112, -0.115528, 0.021684, -0.171515, -0.198768, 0.27899, -0.025665, 0.024485, 0.053335, -0.02652], [0.066712, 0.029304, 0.029099, -0.035623, 0.288206, 0.000566, 0.114322, 0.12398, 0.048096, 0.026721, 0.051108, 0.064301, -0.004906, 0.148589, 0.039989, 0.118814, -0.099848, 0.035266, -0.172199, -0.031785, 0.075341, 0.082399, 0.100008, -0.12548], [-0.014778, 0.060497, -0.000306, 0.043104, 0.02735, -0.036203, 0.010038, 0.079106, 0.022287, 0.227574, 0.002503, -0.001608, 0.014467, -0.087985, 0.070762, 0.034333, 0.064212, 0.042373, 0.013108, -0.13381, -0.044029, 0.007346, 0.011304, -0.118911], [-0.023084, 0.296843, 0.048101, 0.000475, 0.034361, -0.13463, -0.018487, 0.038166, -0.076451, -0.038583, 0.044503, -0.130092, -0.008113, -0.045863, -0.141035, -0.029806, 0.003919, 0.139019, 0.06638, -0.156731, 0.064337, 0.063375, 0.187883, -0.057927], [0.092736, 0.053463, 0.057881, 0.148761, 0.151634, -0.14151, 0.038869, -0.004875, 0.541265, 0.140244, 0.017771, -0.019456, -0.040772, 0.076267, -0.069969, 0.22785, 0.129701, 0.097583, -0.004022, 0.076759, -0.192647, 0.099129, 0.163157, -0.139032], [-0.211514, -0.110225, -0.092515, -0.101415, -0.094714, -0.011232, -0.16482, -0.120235, -0.111832, 0.072082, -0.034723, -0.050982, 0.057588, 0.028113, 0.076045, -0.039042, 0.095183, -0.112972, -0.015137, -0.089188, 0.065196, -0.043343, 0.001494, 0.060387], [-0.245127, -0.105434, 0.049802, -0.186932, -0.198315, -0.042222, -0.127924, -0.128601, -0.109041, 0.033282, -0.055208, -0.002936, 0.136701, 0.048651, -0.061171, -0.068204, 0.104191, -0.061066, 0.071914, 0.066339, 0.003531, -0.181382, -0.109714, -0.051343], [-0.140011, 0.047989, -0.018406, 0.26524, -0.113855, -0.124334, -0.15868, -0.001744, -0.076431, 0.05659, 0.003365, -0.088437, 0.048896, -0.026216, 0.08928, 0.119636, -0.084217, -0.080111, 0.090849, -0.025048, 0.086297, 0.026646, -0.185728, -0.047521], [0.015288, 9.5e-05, -0.005166, 0.302157, -0.014057, -0.081781, 0.204359, 0.188588, -0.171031, 0.300972, 0.010905, 0.01568, 0.086151, -0.043683, 0.118534, -0.01636, -0.202134, 0.011735, 0.051377, -0.210405, 0.10737, -0.004452, 0.133304, -0.002177], [0.109975, -0.02502, 0.04031, 0.043321, 0.018348, -0.021474, 0.09424, -0.023592, 0.171139, -0.122699, 0.005603, -0.009912, -0.026994, -0.003157, -0.046632, 0.062979, 0.151424, 0.174382, 0.024194, 0.14593, 0.056185, -0.006608, -0.074613, 0.146067], [0.055251, -0.008014, 0.108378, -0.249043, -0.113992, -0.08482, -0.187174, 0.071885, -0.019052, -0.226847, -0.147762, 0.043512, 0.039179, -0.027274, -0.13697, 0.071511, 0.03236, -0.192362, 0.084834, -0.098194, -0.066696, -0.132485, 0.208169, 0.145258], [-0.109108, -0.038377, -0.067781, 0.112441, 0.091607, 0.015284, 0.53261, -0.025369, 0.055544, 0.132469, 0.020395, 0.018325, 0.078771, -0.07222, 0.111675, 0.008815, -0.182467, -0.035694, -0.200297, -0.186772, 0.135524, 0.091018, -0.069504, -0.170501], [0.142275, -0.036589, -0.102171, -0.016389, 0.018611, -0.032294, -0.027544, -0.067201, -0.058537, -0.204445, -0.006693, -0.011529, -0.000278, -0.038779, 0.019602, -0.054431, 0.010544, 0.190097, -0.043599, 0.014136, 0.129279, -0.041088, 0.07846, -0.166654], [0.175878, 0.076808, 0.075354, 0.091603, 0.002476, 0.11234, -0.065987, -0.147829, 0.202847, -0.056719, -0.009692, 0.221995, -0.013818, -0.030453, -0.088945, -0.001414, -0.061007, -0.033421, -0.05569, -0.150259, -0.064158, -0.04446, -0.314086, -0.001043], [-0.000403, -0.042341, 0.084378, 0.116515, 0.19693, 0.024755, 0.265788, 0.023162, 0.140178, 0.057814, 0.148796, -0.009718, 0.042918, 0.128926, 0.010349, -0.067216, 0.129467, 0.083986, 0.037188, -0.026559, 0.128434, 0.113813, 0.342055, 0.149624], [0.137243, 0.041096, 0.060216, -0.229383, 0.027417, 0.005784, -0.085696, -0.186769, 0.195356, -0.104999, -0.006505, 0.038371, -0.06805, 0.142825, -0.026963, -0.078285, 0.095686, 0.058718, 0.000438, 0.048948, 0.002987, 0.041816, -0.108202, 0.049612], [-0.195483, 0.069809, -0.026533, 0.000659, 0.098689, 0.103706, -0.091554, 0.061254, -0.067604, -0.008172, -0.000864, 0.113769, -0.011731, 0.14444, -0.044513, -0.11681, 0.126936, -0.306319, 0.031708, -0.130963, 0.02033, 0.002673, -0.270397, 0.226917], [0.043952, -0.006426, 0.068003, 0.183251, 0.010361, 0.237781, -0.127444, 0.026713, 0.064305, -0.167206, -0.001433, 0.068744, -0.005034, -0.154205, 0.033689, 0.017427, 0.024265, 0.022373, 0.025108, 0.030596, 0.005887, 0.008284, -0.019763, 0.157649], [0.05355, 0.112373, -0.007409, 0.108316, -0.04811, -0.069159, -0.105479, -0.09678, 0.199738, 0.245131, 0.019199, 0.017071, -0.008849, -0.185905, 0.020277, -0.027133, -0.179947, -0.068392, 0.002383, -0.09757, -0.011555, 0.018727, 0.00971, -0.25994], [0.221501, -0.048679, -6.8e-05, 0.056234, -0.133633, -0.107488, -0.037695, 0.160499, -0.02684, 0.284934, 0.004744, 0.017744, 0.149381, -0.092554, 0.134435, 0.015928, -0.177864, 0.161826, 0.02169, 0.065327, 0.120331, -0.107727, 0.270364, -0.195044], [0.222716, 0.00183, -0.004866, 0.096854, 0.08214, -0.028837, -0.149355, 0.234854, 0.158497, -0.054616, 0.009472, -0.009561, -0.026813, 0.080562, 0.199967, 0.070343, -0.061574, 0.16546, -0.030626, 0.390083, -0.081612, 0.000658, 0.208282, 0.009389], [-0.079593, -0.007244, 0.037952, -0.022396, -0.019477, 0.068403, -0.026237, -0.174067, -0.089002, -0.158338, 0.000612, -0.124573, -0.028748, 0.085657, 0.106797, -0.04518, 0.024048, 0.19213, 0.087471, 0.130178, 0.026415, 0.005135, 0.096346, 0.059268], [0.282941, 0.113849, 0.086722, 0.062423, -0.009906, -0.002053, 0.023014, -0.178687, 0.302566, 0.152543, 0.011592, 0.036153, -0.015284, -0.054117, -0.057294, 0.008826, -0.098304, -0.135151, 0.000821, 0.030733, 0.099574, -0.042234, -0.293444, -0.050186], [-0.097915, 0.038734, 0.057599, -0.057302, -0.088815, 0.054239, -0.082568, -0.067217, 0.041037, -0.167508, -0.01092, -0.026669, -0.002933, 0.075625, 0.020349, 0.123014, 0.168978, -0.00509, 0.038423, 0.100746, 0.046075, 0.004528, 0.167312, -0.112317]], "Uin": [[0.796232, 0.726834], [-0.244006, -0.368599], [0.157506, 0.018426], [0.267539, -0.214691], [0.090197, -0.79497], [-0.44604, 0.977593], [-0.852331, -0.091032], [0.511424, 0.289938], [-0.115171, -0.558737], [0.749035, 0.090166], [-0.425711, -0.24357], [-0.370675, 0.155745], [-0.051993, 0.56401], [-0.248068, 1.132311], [0.709909, -0.894992], [-0.597411, 0.074595], [-0.573649, -0.159383], [1.108283, 0.467517], [0.323205, 0.032567], [-0.010018, 0.068654], [0.114574, -0.617728], [1.152846, 0.436942], [0.451863, 0.523875], [1.084325, -0.121924], [-0.180134, 0.262994], [-0.11201, 0.130222], [-0.5631, 0.212148], [-0.428968, 0.186155], [-0.332986, -0.290686], [0.891262, 0.004941], [-0.6823, 0.097155], [0.253035, -0.090331]], "z0": [-0.084327, -0.060266, 0.07636, 0.169542, 0.245527, -0.196445, -0.432956, -0.276132, -0.051761, 0.097537, 0.261106, -0.021493, 0.34713, -0.260103, -0.252385, 0.019768, 0.32272, 0.299064, -0.367178, 0.168096, -0.175626, -0.090881, 0.297047, -0.152033, -0.186754, 0.067048, 0.258424, 0.10867, 0.226152, -0.099816, -0.31144, 0.055273], "b": 0.48124948143959045, "eps": 1.0366610288619995, "C": [[0.682522, 0.38156, 0.550446, 0.410791, 0.300677, 0.501587, 0.698371, -1.682245, 0.087041, 0.243666, 0.877301, 0.597215, 0.526091, -1.124905, -0.69207, 0.789192, 0.759564, 0.235579, -1.185008, 0.55171, -0.379142, -0.012117, 0.237073, 0.428271, 0.1368, -0.480474, 1.213256, -0.806091, 0.031499, -0.398275, -0.016375, -0.556495], [-1.145892, 0.43088, -0.394021, 0.631576, 0.810558, -1.142934, -1.075927, 0.618289, 0.230011, -0.002536, 0.521927, -0.428011, 0.38694, -0.318457, 0.761655, 0.053718, 0.681551, 0.431413, 1.041642, -0.595521, 0.469957, -0.82902, 0.528172, -0.130373, -1.079687, -0.03687, 0.387163, 1.300689, 0.578233, 0.790635, -1.033936, 0.854743], [-0.041946, -0.022342, -0.962815, 0.790819, -0.391449, 0.432052, -0.00722, 0.485411, -0.171483, 0.133675, 0.267034, -0.126847, -0.399963, 0.503872, -0.183801, -0.356818, -0.245448, -0.049479, 0.201312, -0.009629, 0.278724, -0.156475, -0.574025, 0.501304, 0.807752, 0.010489, -0.427645, -1.663089, -0.20153, 0.168624, -0.636959, -0.50135]], "cb": [0.129786, 0.28749, -0.295821]}, "edit": {"anchors": [[-0.998482, 0.713241, -0.321698, 0.30036, 0.961727, -0.843011, 0.905802, -0.959788, 0.809802, -0.912678, 0.926191, 0.039083, -0.6704, -0.979569, -0.086124, 0.738353, 0.956954, -0.99428, -0.841296, -0.103935, 0.617812, -0.997447, -0.913546, -0.976332, -0.084666, 0.452774, 0.644342, 0.598181, 0.968886, -0.962637, 0.698318, -0.260032], [-0.998343, 0.682429, -0.341218, 0.170558, 0.934221, -0.665955, 0.930611, -0.960798, 0.760902, -0.933373, 0.927706, 0.185742, -0.537143, -0.9542, -0.473081, 0.806084, 0.962138, -0.995318, -0.853683, -0.098929, 0.450899, -0.997988, -0.903687, -0.986355, 0.058104, 0.484389, 0.742538, 0.683609, 0.967528, -0.975915, 0.787121, -0.332112], [-0.998559, 0.688563, -0.358359, 0.121993, 0.926844, -0.597646, 0.943606, -0.964657, 0.75855, -0.944568, 0.933131, 0.24997, -0.504676, -0.945504, -0.570748, 0.834377, 0.966415, -0.996312, -0.86321, -0.103165, 0.409096, -0.998462, -0.909535, -0.989817, 0.098462, 0.493389, 0.777055, 0.714529, 0.969149, -0.981009, 0.822212, -0.363174], [-0.998885, 0.73922, -0.34009, 0.292627, 0.966244, -0.852111, 0.922818, -0.965923, 0.830919, -0.926626, 0.93465, 0.063468, -0.694245, -0.982455, -0.081327, 0.76265, 0.962383, -0.995806, -0.852262, -0.117219, 0.641961, -0.998167, -0.927713, -0.980711, -0.085323, 0.455845, 0.664464, 0.613147, 0.972672, -0.968811, 0.730247, -0.277129], [-0.996644, 0.594331, -0.317844, 0.090577, 0.878044, -0.436358, 0.914164, -0.946929, 0.655299, -0.920614, 0.90974, 0.265417, -0.348747, -0.894678, -0.661689, 0.809736, 0.954485, -0.992327, -0.839245, -0.063599, 0.248612, -0.996758, -0.852209, -0.98561, 0.13797, 0.480614, 0.767576, 0.706009, 0.954155, -0.973418, 0.785925, -0.344679], [-0.996686, 0.646483, -0.268054, 0.365846, 0.95579, -0.864406, 0.822497, -0.937148, 0.762576, -0.849104, 0.898447, -0.069458, -0.644232, -0.976936, 0.048617, 0.63087, 0.936593, -0.986145, -0.803198, -0.06733, 0.605325, -0.993491, -0.866646, -0.951253, -0.142844, 0.427889, 0.541943, 0.52534, 0.956862, -0.92977, 0.549055, -0.186478], [-0.994407, 0.558413, -0.262999, 0.245488, 0.907121, -0.669115, 0.829145, -0.922429, 0.651812, -0.855447, 0.882082, 0.054951, -0.449481, -0.933203, -0.384146, 0.688023, 0.932939, -0.982676, -0.799052, -0.043067, 0.375578, -0.991979, -0.810701, -0.963531, 0.013305, 0.456124, 0.639286, 0.604765, 0.945546, -0.943012, 0.624526, -0.242048], [-0.998614, 0.709783, -0.338965, 0.234879, 0.952625, -0.774063, 0.92575, -0.962882, 0.796983, -0.929099, 0.930482, 0.117278, -0.621055, -0.971398, -0.289124, 0.782828, 0.961809, -0.995455, -0.85212, -0.108122, 0.551552, -0.998019, -0.915476, -0.983488, -0.011898, 0.472644, 0.703514, 0.648925, 0.970189, -0.972241, 0.757747, -0.303396]], "alpha": 0.01761825691878267, "gamma": 0.0020689169199439765, "gamma_raw": 0.004474869282688068, "rescale": 0.46234130859375, "cls": 3, "m_teach": 8}, "teach_x": [[-2.137394, -2.087566], [-2.367136, -1.768017], [-2.500033, -1.715718], [-2.244739, -2.17651], [-2.296653, -1.378983], [-1.772078, -1.965367], [-1.862954, -1.5031], [-2.297429, -1.966312]], "pca": {"mean": [-0.036076, -0.320316, 0.09218, 0.422273, 0.258516, -0.19457, -0.415119, -0.311439, -0.200803, 0.207396, 0.199694, 0.003011, 0.396612, -0.16126, -0.356972, -0.03472, 0.281399, 0.134602, -0.378096, 0.081307, -0.198104, -0.069604, 0.418155, -0.07278, -0.082144, 0.376877, 0.095582, 0.178953, 0.358367, -0.030279, -0.165443, 0.100725], "basis": [[0.260114, -0.169301, 0.105006, 0.046894, -0.132292, 0.092312, -0.225074, 0.195554, -0.179269, 0.23735, -0.207631, -0.093082, 0.145114, 0.119394, 0.007606, -0.210188, -0.228448, 0.264869, 0.132943, -0.019124, -0.121356, 0.275553, 0.207113, 0.264992, 0.034437, 0.020461, -0.185234, -0.184581, -0.176088, 0.254905, -0.192787, 0.091858], [-0.066617, 0.135319, 0.043411, 0.108564, 0.320139, -0.395995, -0.072846, -0.019166, 0.19449, 0.08815, 0.033772, -0.101893, -0.147743, -0.424064, 0.322978, -0.172464, -0.062847, 0.040995, 0.04709, -0.132561, 0.284142, 0.065824, -0.079098, 0.193451, -0.206771, -0.070639, -0.144396, -0.118489, 0.134761, 0.151379, -0.124492, 0.111318]]}, "test": {"x": [[0.34241, -1.222568], [-1.563557, 0.328701], [0.251663, -1.074214], [1.713066, 0.275269], [0.491391, -1.673035], [-0.235108, -1.064887], [0.286131, 1.095208], [1.127062, -0.870592], [0.173145, -0.918118], [0.053418, -0.863575], [-1.516957, 0.965235], [-0.914188, 0.967313], [-1.132037, 1.410193], [0.960513, -1.420404], [-0.119425, -0.625614], [-0.595366, 1.359706], [-0.306534, -0.936433], [1.769827, -0.03258], [1.216853, -0.746059], [-1.577183, -0.475323], [-1.987963, 0.534156], [-0.153559, -0.378869], [-0.019157, -1.32061], [-1.578062, -0.030044], [0.034507, -0.761095], [0.675481, -1.42689], [-0.47014, 1.364819], [0.445409, 0.964505], [-0.660183, -0.118563], [-1.347884, 0.872981], [-0.714656, -0.18255], [-0.709998, 1.360132], [-1.561618, 0.804831], [-0.364834, 1.927443], [0.368558, -0.407646], [0.739209, -1.03092], [-1.696747, 0.2134], [1.63401, -0.632236], [0.308099, -1.119931], [-1.393186, 0.679496], [1.205502, -1.344832], [-0.140889, 0.448396], [1.062601, -1.394253], [1.534257, -1.542022], [-0.681786, 1.140267], [1.509553, -1.300287], [1.121429, -0.646393], [-0.358661, -1.084597], [0.33642, 0.56102], [-0.668657, 1.119077], [0.557439, -1.29232], [1.728332, 0.144061], [-0.684722, -0.283655], [-0.25345, 1.157659], [-1.178668, 1.164084], [-0.316111, -0.474072], [-0.00522, -0.50426], [-0.325419, 0.615498], [1.627495, 0.034936], [1.199219, -1.239402], [0.576699, -1.53533], [1.475909, 0.283979], [0.531658, 0.768782], [0.589828, -1.063101], [1.321061, -0.639618], [-1.535898, 0.536436], [-0.523117, 1.421333], [0.037729, 1.031227], [-0.458871, 1.396241], [1.031648, -0.949441], [1.697143, -0.392949], [-1.242969, 0.470696], [-1.402969, 0.887462], [1.64922, -0.222952], [-0.16071, -1.601505], [-0.089212, 1.21951], [-0.591405, -0.45813], [1.789709, -0.039487], [-1.217348, 1.414167], [1.563899, 0.433367], [-1.220426, 1.190691], [0.239634, 0.85192], [1.830491, 0.661648], [0.05055, 0.837031], [-1.152075, 1.233078], [1.580682, 0.673508], [-0.000898, -1.324737], [0.003423, 1.035865], [0.663871, -0.94927], [1.446076, -0.58383], [1.661793, 0.120036], [-0.511962, 1.338693], [-1.178417, 0.902866], [-0.622093, 1.763309], [-0.714592, -0.304827], [-0.286297, -0.122129], [1.934764, -0.754124], [0.470662, 0.007919], [-0.101986, 1.017093], [-0.609529, 0.629589], [-0.39975, 1.598666], [-0.513063, 0.119171], [0.126664, 1.140896], [-1.81211, 0.013078], [0.496207, -0.3516], [0.260833, 0.078125], [-0.72943, 1.757821], [-0.188764, -1.403907], [-0.512523, -0.252931], [-0.813683, 0.006778], [-0.665928, 1.249285], [0.061556, -1.63749], [1.253944, -1.143051], [1.904917, 0.507525], [-1.447088, 0.75251], [-0.08337, 1.248573], [-1.205511, 0.892076], [-0.466724, -0.769769], [-1.049029, 1.102171], [1.700215, -0.211529], [0.890509, -1.517061], [-0.050688, 1.310408], [-1.923523, 0.332638], [1.015204, -0.271454], [-1.735515, 0.50405], [1.69743, 0.428098], [1.551345, -0.268021], [1.33117, -0.000968], [-0.591877, 1.561769], [1.284944, -0.75793], [-0.749528, 1.240595], [0.600982, -1.591151], [0.701906, 0.200271], [-1.780845, 0.787496], [-1.535787, 0.423614], [0.144784, -1.226652], [1.807023, -0.621442], [-0.313758, 0.834126], [-0.907605, 0.930655], [-0.410398, -0.898254], [0.624064, -1.206864], [-0.64873, -0.242404], [-0.01987, -0.966783], [1.684368, -0.547099], [-1.567158, 0.505569], [-0.886066, 1.556029], [-0.59601, 0.803018], [-0.084641, -1.291453], [-0.599192, 1.70855], [-1.452474, 0.98153], [-0.866933, 1.042882], [1.427908, -1.028744], [0.307825, 1.102828], [1.465223, 0.759375], [1.622378, -0.464932], [0.236284, -1.376489], [0.013796, -1.257692], [1.279894, -0.704724], [0.107616, 0.10972], [-0.413793, 0.251828], [-1.47323, 0.463056], [-1.266218, 0.364348], [0.399693, -1.211416], [-1.48444, 0.564322], [-0.910473, 0.991177], [1.203196, -1.309107], [0.272724, 0.5127], [1.218379, -0.943606], [0.560181, 0.100917], [0.116986, 0.290524], [-0.014709, -0.89925], [0.823802, -0.861642], [-0.531677, 0.312243], [-1.482662, 0.429405], [-0.465044, 0.604947], [-0.004147, 1.355214], [-1.314779, 0.763813], [-1.64479, -0.992314], [1.454214, -1.77357], [0.276687, 1.655568], [-0.953486, 1.419518], [-1.569066, -0.527651], [-0.859723, 1.253436], [0.208424, 0.466878], [0.27386, 0.710259], [1.585045, -0.155197], [-0.412757, 1.031628], [-1.649283, -0.281329], [1.560199, -0.430112], [-0.601034, 0.425885], [1.275822, -0.902827], [1.602067, -0.270158], [0.378671, 0.457895], [1.576938, 0.527034], [-1.821756, -0.193326], [0.336314, 0.343849], [-0.480248, 0.590693], [1.870827, 0.168156], [1.436392, -0.473691], [-0.435862, 0.215039], [0.492696, 0.45858], [-0.324933, 1.544466], [-0.65838, 1.129826], [-0.323712, -1.267968], [0.506288, -1.910166], [-0.526465, 0.196353], [-0.846454, 1.240461], [0.460744, 0.312635], [1.766644, 0.88637], [-2.021291, 0.222942], [1.583198, -0.625342], [-0.957823, 1.313661], [0.817713, -0.261536], [-0.450848, -0.333238], [0.125351, -1.702856], [1.157685, -2.008242], [0.391041, -0.337503], [-0.237616, -0.840145], [1.495684, -0.258096], [-1.580611, 0.50668], [1.448593, 0.301348], [0.313909, -1.06108], [0.257031, -1.569121], [0.705739, 0.071038], [1.031967, -1.191379], [0.054228, 1.053408], [0.911184, -1.630654], [-0.821817, 0.030342], [0.311926, -0.175019], [2.092772, 0.331521], [0.005035, 1.48895], [0.985341, -1.385765], [-2.064201, -0.215564], [-1.378127, 0.952797], [-1.06117, 1.103994], [0.062541, -1.362887], [-0.359565, -0.34267], [0.49474, -0.408647], [-0.822684, 0.524833], [-0.788904, 1.328672], [0.432512, -0.739321], [-0.270558, -0.940402], [-1.226674, 1.672852], [-1.77, -0.375421], [-0.663921, 1.580183], [-1.443124, 0.118434], [0.051381, 1.260179], [1.731624, -0.114073], [0.462456, -0.377509], [-0.379515, 0.216474], [-0.23444, -0.710319], [-1.016098, 2.082344], [0.100717, 1.178231], [-1.237047, 2.016654], [0.628934, -1.141545], [0.646139, -1.633521], [-0.334183, -1.229655], [-1.825386, -0.51541], [-0.581524, -0.279412], [1.320229, -0.674432], [1.909889, -0.192529], [-0.386679, -1.470655], [0.676476, -1.525931], [-0.94579, 1.05895], [1.661738, -0.750929], [1.640962, -0.661556], [-1.025854, 1.287582], [-0.387732, 1.282683], [0.003913, 1.231311], [0.93664, -1.832952], [1.715034, -0.294098], [-1.649774, 0.124855], [-1.250865, 0.043671], [-1.137247, 0.956541], [-0.201455, 1.513973], [-1.712974, 0.143175], [0.500041, -0.076196], [0.013928, 0.374338], [-0.243766, -0.94109], [0.066954, -1.58949], [0.188494, 0.747575], [-0.252238, 1.2772], [-0.750211, 0.192372], [1.250913, -1.51211], [-1.402036, 1.148151], [1.270023, 0.230371], [-0.091435, 1.766809], [-1.294289, 0.380288], [0.689908, 0.588154], [-0.335271, -0.214411], [1.688327, -0.337037], [1.626286, 0.257829], [-1.390297, 1.184883], [-1.554397, 0.873741], [1.775945, -0.694324], [1.260306, -0.923608], [-1.075603, 1.054406], [0.457383, 0.501783], [-0.945538, -1.413327], [-0.368212, -0.849298], [-0.41216, 0.84852], [0.301048, -1.049528], [-0.07801, 1.619518], [0.076323, 0.302112], [-0.066641, 1.134646], [-1.470509, 0.456076], [1.65708, -0.304929], [-0.079368, -1.464644], [-1.272655, 1.091844], [1.603929, 0.044251], [1.051993, -1.825048], [-0.577604, 0.342932], [0.324132, 0.507294], [0.013715, 0.814295], [1.438807, 0.766459], [-0.025965, 0.919891], [-1.170034, 1.005978], [-1.698186, 1.815612], [-1.509984, 0.888898], [1.514225, -0.91808], [0.114834, -0.680043], [-1.827041, -0.469243], [0.98467, -1.292695], [0.09073, -1.282805], [1.388424, -0.810245], [-1.794738, 0.663517], [0.053365, 1.542007], [1.069724, -1.286155], [-0.725457, -0.113327], [1.886298, 0.451406], [1.722088, -0.511765], [-1.488272, -0.781406], [1.482358, -1.77306], [-1.280921, 0.566451], [-0.566579, 1.399658], [0.094141, -1.198895], [0.139534, 1.040164], [1.381692, -0.343414], [1.022492, -1.004585], [0.306422, -0.972243], [0.395534, -1.883996], [1.36111, 0.118661], [0.7151, -0.088943], [0.399235, 0.952491], [1.057925, -1.273111], [0.443387, -0.182], [1.535978, 0.00803], [-0.644574, -0.955914], [-1.675058, 0.697802], [0.719266, -1.177404], [0.876392, -0.928391], [-1.62337, 1.107218], [-0.47702, -0.117342], [0.412042, -1.304024], [-1.314475, 1.045618], [1.504289, 0.129139], [0.520878, -1.576844], [-1.416854, 0.538033], [-1.34909, 1.309159], [-1.623778, -0.506227], [-0.967742, 1.580681], [-1.41668, 0.273658], [-0.69729, 0.534261], [1.394769, -0.191644], [0.060414, 1.351135], [-0.493552, 1.525229], [-1.488557, 0.457772], [1.943667, 0.153607], [-0.299865, -0.798947], [-0.371025, 1.50289], [0.525642, -1.687141], [0.37113, 1.064713], [0.486407, -1.47163], [-0.88274, 0.055925], [0.287395, -1.291955], [1.806732, -0.798587], [-1.479567, 0.889691], [-1.607319, 0.911513], [-0.457813, 1.327257], [-1.730083, -0.118502], [0.042602, 1.272235], [0.001726, -0.943691], [-0.77384, 1.99233], [-0.086843, -1.043125], [-0.334254, 1.49979], [1.704277, -0.645338], [1.379211, -0.526781], [1.340809, -1.077986], [1.545492, -0.114886], [-1.339673, 1.097643], [-0.412997, -0.085275], [0.489104, 0.601738], [0.259409, 0.647536], [-0.023166, -1.073046], [-0.190918, -0.794178], [-0.570862, -0.285379], [-0.075979, -0.578844], [0.712305, -1.482592], [-0.084853, 1.048125], [0.849339, -1.041302], [1.958484, 1.9197], [2.619649, 1.839194], [2.004825, 2.007569], [2.575394, 1.784501], [2.045665, 1.922542], [2.280067, 2.393999], [1.840451, 1.549407], [2.149998, 2.033585], [1.625718, 1.78193], [2.328494, 1.80197], [2.224546, 1.956815], [2.262042, 2.014609], [2.176971, 2.19396], [1.99681, 1.947791], [2.369299, 1.798044], [2.039997, 1.756247], [1.915528, 2.367275], [2.226041, 2.335587], [2.284013, 1.940026], [2.061278, 1.981361], [2.113572, 2.123811], [1.931511, 1.960365], [2.225039, 1.872559], [2.072195, 2.044175], [2.246345, 1.900501], [2.120124, 1.800696], [2.245113, 1.896228], [1.777982, 1.853598], [2.256525, 1.982921], [1.925474, 2.081432], [2.252436, 2.052728], [2.453647, 1.844965], [2.249823, 1.860525], [2.333222, 2.170913], [2.222857, 2.078617], [1.93633, 2.051007], [1.852201, 2.388179], [2.365827, 1.575354], [1.525865, 2.19567], [1.921005, 2.027753], [1.822219, 1.922543], [1.964422, 2.037391], [2.032022, 2.231876], [1.938245, 2.185968], [2.100686, 2.018598], [1.75363, 1.518194], [2.334418, 1.633202], [2.028189, 1.83228], [1.904359, 1.946852], [1.792208, 1.640717], [2.304882, 1.725087], [2.264826, 2.047282], [2.43497, 2.001268], [1.698315, 1.758208], [2.010427, 2.170938], [2.176656, 1.793306], [2.196237, 1.821797], [2.220912, 1.933815], [2.343972, 1.973795], [2.319057, 1.89764], [2.256669, 1.866647], [2.241617, 1.949293], [2.072733, 1.807715], [2.039781, 2.004186], [1.595807, 2.172958], [1.579168, 1.858274], [2.027506, 2.062671], [2.15187, 1.890499], [2.118459, 2.108174], [2.615032, 1.982955], [1.646946, 1.807774], [2.192341, 2.62923], [1.931607, 1.818143], [2.223027, 1.971122], [1.80875, 2.108364], [1.810465, 1.841357], [2.391448, 1.609863], [2.024234, 2.267425], [2.04267, 1.669294], [1.971925, 2.084023], [1.754794, 1.760634], [1.779032, 1.645135], [2.383198, 1.88142], [2.003234, 1.993547], [1.942529, 1.634704], [2.35234, 2.093173], [1.91335, 2.054961], [2.421237, 2.008009], [2.210035, 1.626233], [2.070323, 1.48742], [2.345309, 1.861557], [2.39168, 1.728809], [2.292838, 1.549387], [2.009988, 2.020244], [2.178254, 1.886521], [1.735277, 2.192206], [2.245673, 2.151838], [2.348958, 1.816302], [2.186398, 2.485828], [1.913991, 1.989849], [1.975328, 2.287585], [2.138109, 1.668813], [1.965274, 1.586892], [1.593136, 1.296775], [1.93765, 1.647955], [2.132468, 1.715393], [2.149213, 2.293379], [1.837395, 1.629512], [2.318059, 2.421326], [1.904698, 1.523013], [2.034386, 1.808909], [2.257411, 1.662545], [2.040519, 1.829737], [1.747519, 1.548973], [2.198424, 2.020782], [1.921528, 2.247791], [2.307479, 2.002461], [2.235079, 1.977008], [2.26016, 2.092003], [2.11429, 1.440521], [-1.892731, -1.877556], [-1.55978, -1.410737], [-2.248425, -1.818718], [-2.538326, -2.037285], [-2.293095, -2.066543], [-2.573248, -1.838406], [-2.066205, -2.078876], [-2.116824, -1.694426], [-1.743095, -2.195525], [-1.746984, -2.282334], [-2.284024, -1.988345], [-1.757647, -1.766729], [-1.971066, -1.554534], [-2.051024, -2.001085], [-1.775261, -1.949872], [-2.383481, -2.286105], [-2.065943, -1.485843], [-1.935794, -1.890542], [-1.831504, -2.232631], [-2.005327, -2.020647], [-1.795041, -2.087579], [-1.922873, -1.856672], [-2.097337, -1.746767], [-2.12998, -1.581835], [-2.147115, -2.384446], [-1.779827, -1.604853], [-1.988316, -1.591571], [-1.947319, -2.085787], [-2.556241, -2.132956], [-2.164745, -1.785439], [-2.417113, -2.102419], [-1.764541, -2.056858], [-2.264321, -2.113137], [-1.741089, -1.726361], [-1.90356, -1.534593], [-1.887834, -1.603764], [-2.019979, -1.707957], [-1.961819, -1.746064], [-2.360901, -1.949373], [-2.182559, -2.046024], [-2.111316, -1.500647], [-1.892752, -1.880945], [-2.027847, -1.590508], [-2.371879, -1.816698], [-1.735181, -1.504625], [-1.903782, -1.780956], [-2.504582, -2.061559], [-2.113644, -1.820527], [-2.013448, -2.412075], [-2.22388, -1.843819], [-2.275118, -1.955209], [-1.992332, -1.837705], [-2.066852, -1.742722], [-1.856274, -1.97001], [-2.338176, -2.059598], [-2.214334, -1.915017], [-2.438414, -2.07364], [-2.160729, -1.604992], [-1.989182, -1.937603], [-1.90912, -1.863948], [-2.052087, -1.668078], [-2.02889, -1.869271], [-1.943716, -2.023223], [-2.092138, -2.365654], [-2.194161, -1.562052], [-2.180817, -1.90156], [-2.194419, -2.127624], [-1.99345, -1.905826], [-1.860294, -2.096402], [-2.092197, -1.975464], [-2.230277, -1.661981], [-2.261656, -2.059247], [-1.543023, -1.915773], [-2.145132, -1.797798], [-2.321193, -1.822065], [-2.359253, -2.004001], [-2.225605, -1.602339], [-1.959889, -1.49263], [-1.730074, -2.050027], [-1.982776, -1.994442], [-2.238305, -1.634947], [-1.782613, -1.870555], [-2.024637, -1.834448], [-2.027572, -1.821232], [-2.321329, -1.763633], [-2.250134, -2.160949], [-2.129957, -1.839674], [-1.913741, -1.815462], [-2.034444, -2.045844], [-2.011545, -1.852755], [-2.035334, -2.063763], [-1.725117, -1.733189], [-1.950022, -1.879063], [-2.162445, -1.695032], [-2.391744, -2.001756], [-2.164734, -1.774709], [-2.168903, -1.587836], [-2.488289, -1.55595], [-2.031182, -1.693973], [-2.214427, -1.67298], [-2.173315, -1.844944], [-2.428231, -1.781417], [-2.074339, -2.317234], [-2.124065, -1.971921], [-1.920761, -2.051204], [-2.059488, -1.617624], [-2.294554, -1.487573], [-2.047937, -1.952324], [-2.403555, -2.294322], [-1.891192, -2.004419], [-2.239817, -1.667383], [-1.952865, -1.875156], [-2.426513, -2.333681], [-1.89353, -1.912174], [-2.159927, -1.478939], [-2.194681, -1.822071], [-1.625711, -1.765727], [-2.222773, -2.087294], [-1.831988, -2.173774], [-1.915853, -1.542211]], "y": [1, 0, 1, 1, 1, 1, 0, 1, 1, 1, 0, 0, 0, 1, 1, 0, 1, 1, 1, 0, 0, 1, 1, 0, 1, 1, 0, 0, 1, 0, 1, 0, 0, 0, 0, 1, 0, 1, 1, 0, 1, 1, 1, 1, 1, 1, 1, 1, 0, 0, 1, 1, 1, 0, 0, 1, 1, 1, 1, 1, 1, 1, 0, 1, 1, 0, 0, 0, 0, 1, 1, 0, 0, 1, 1, 0, 1, 1, 0, 1, 0, 0, 1, 0, 0, 1, 1, 0, 1, 1, 1, 0, 0, 0, 1, 1, 1, 0, 0, 1, 0, 1, 0, 0, 0, 0, 0, 1, 1, 1, 0, 1, 1, 1, 0, 0, 0, 1, 0, 1, 1, 0, 0, 0, 0, 1, 1, 1, 0, 1, 0, 1, 0, 0, 0, 1, 1, 0, 0, 1, 1, 1, 1, 1, 0, 0, 1, 1, 0, 0, 0, 1, 0, 1, 1, 1, 1, 1, 0, 1, 0, 0, 1, 0, 0, 1, 0, 1, 0, 0, 1, 1, 1, 0, 1, 0, 0, 0, 1, 0, 0, 0, 0, 0, 0, 1, 0, 0, 1, 1, 1, 1, 0, 1, 0, 0, 0, 1, 1, 1, 0, 0, 0, 1, 1, 1, 0, 0, 1, 0, 1, 0, 0, 1, 1, 1, 0, 1, 1, 0, 1, 1, 1, 0, 1, 0, 1, 1, 0, 1, 0, 1, 0, 0, 0, 1, 1, 0, 0, 0, 1, 1, 0, 0, 0, 0, 0, 1, 0, 1, 1, 0, 0, 0, 1, 1, 1, 0, 1, 1, 1, 1, 1, 0, 1, 1, 0, 0, 0, 1, 1, 0, 0, 0, 0, 0, 0, 0, 1, 1, 0, 0, 1, 1, 0, 1, 0, 0, 0, 1, 1, 1, 0, 0, 1, 1, 0, 0, 1, 1, 0, 1, 0, 0, 0, 0, 1, 1, 0, 1, 1, 1, 0, 0, 1, 0, 0, 0, 0, 1, 1, 0, 1, 1, 1, 0, 0, 1, 1, 1, 1, 0, 1, 0, 0, 1, 0, 1, 1, 1, 1, 1, 0, 0, 1, 0, 1, 1, 0, 1, 1, 0, 1, 1, 0, 1, 1, 0, 0, 0, 0, 0, 1, 1, 0, 0, 0, 1, 1, 0, 1, 0, 1, 1, 1, 1, 0, 0, 0, 0, 0, 1, 0, 1, 0, 1, 1, 1, 1, 0, 1, 0, 0, 1, 1, 1, 1, 1, 0, 1, 2, 2, 2, 2, 2, 2, 2, 2, 2, 2, 2, 2, 2, 2, 2, 2, 2, 2, 2, 2, 2, 2, 2, 2, 2, 2, 2, 2, 2, 2, 2, 2, 2, 2, 2, 2, 2, 2, 2, 2, 2, 2, 2, 2, 2, 2, 2, 2, 2, 2, 2, 2, 2, 2, 2, 2, 2, 2, 2, 2, 2, 2, 2, 2, 2, 2, 2, 2, 2, 2, 2, 2, 2, 2, 2, 2, 2, 2, 2, 2, 2, 2, 2, 2, 2, 2, 2, 2, 2, 2, 2, 2, 2, 2, 2, 2, 2, 2, 2, 2, 2, 2, 2, 2, 2, 2, 2, 2, 2, 2, 2, 2, 2, 2, 2, 2, 2, 2, 2, 2, 3, 3, 3, 3, 3, 3, 3, 3, 3, 3, 3, 3, 3, 3, 3, 3, 3, 3, 3, 3, 3, 3, 3, 3, 3, 3, 3, 3, 3, 3, 3, 3, 3, 3, 3, 3, 3, 3, 3, 3, 3, 3, 3, 3, 3, 3, 3, 3, 3, 3, 3, 3, 3, 3, 3, 3, 3, 3, 3, 3, 3, 3, 3, 3, 3, 3, 3, 3, 3, 3, 3, 3, 3, 3, 3, 3, 3, 3, 3, 3, 3, 3, 3, 3, 3, 3, 3, 3, 3, 3, 3, 3, 3, 3, 3, 3, 3, 3, 3, 3, 3, 3, 3, 3, 3, 3, 3, 3, 3, 3, 3, 3, 3, 3, 3, 3, 3, 3, 3, 3], "proj": [[-0.384718, 2.218534], [-2.646541, -2.043964], [-0.516382, 1.985959], [3.085752, 1.705387], [-0.360674, 2.700003], [-1.586713, 1.536261], [1.406797, -1.485005], [1.718115, 2.418569], [-0.599921, 1.737021], [-0.85526, 1.583799], [-2.152354, -2.769771], [-1.270185, -2.378046], [-1.305173, -2.962397], [1.004019, 2.772925], [-1.038367, 1.162738], [-0.39157, -2.609425], [-1.616446, 1.333524], [2.952112, 2.082757], [1.932513, 2.373742], [-3.226537, -0.704781], [-2.841568, -2.499237], [-0.907156, 0.835282], [-1.35262, 1.995718], [-2.921578, -1.47648], [-0.815265, 1.444639], [0.36674, 2.626594], [-0.143934, -2.533752], [1.701605, -1.02471], [-1.558324, 0.000745], [-2.014053, -2.602839], [-1.688185, 0.033535], [-0.608023, -2.684668], [-2.309847, -2.633815], [0.398711, -2.897656], [0.42115, 1.012859], [0.886153, 2.242906], [-2.846808, -1.948805], [2.486748, 2.520185], [-0.393477, 2.078809], [-2.209277, -2.411528], [1.47233, 2.8341], [-0.137348, -0.554422], [1.207805, 2.803363], [1.755088, 3.070781], [-0.724833, -2.391896], [1.903694, 2.922534], [1.864854, 2.20138], [-1.814961, 1.436856], [1.145116, -0.30413], [-0.71611, -2.347594], [0.181219, 2.429859], [3.018832, 1.873267], [-1.721793, 0.209533], [0.14724, -2.107694], [-1.564233, -2.791032], [-1.286365, 0.814095], [-0.68728, 1.089139], [-0.411241, -1.030349], [2.869428, 1.926831], [1.545991, 2.757424], [-0.004325, 2.65778], [2.880796, 1.505352], [1.717088, -0.490056], [0.489435, 2.153605], [2.138479, 2.353797], [-2.470028, -2.313713], [-0.204933, -2.627748], [0.750498, -1.67337], [-0.098073, -2.56083], [1.512416, 2.418133], [2.688304, 2.36334], [-2.166962, -2.019689], [-2.072891, -2.645637], [2.741903, 2.192846], [-1.808954, 2.088871], [0.559161, -2.077417], [-1.71507, 0.53028], [2.964187, 2.10031], [-1.434551, -3.001495], [3.068017, 1.361698], [-1.606822, -2.834703], [1.155561, -1.080377], [3.441633, 1.182023], [0.662845, -1.288725], [-1.471667, -2.836087], [3.276553, 0.931805], [-1.317307, 2.016957], [0.666864, -1.713813], [0.76431, 2.034157], [2.320866, 2.38541], [2.949307, 1.856486], [-0.246284, -2.531142], [-1.75652, -2.53281], [-0.150539, -2.947912], [-1.782372, 0.205388], [-0.953431, 0.383871], [2.681462, 2.713764], [0.993169, 0.617702], [0.393524, -1.765787], [-0.926796, -1.318217], [0.155876, -2.707926], [-1.145248, -0.21702], [1.032347, -1.754898], [-3.074667, -1.699858], [0.774437, 1.028654], [0.572972, 0.378126], [-0.347364, -2.998616], [-1.739158, 1.905245], [-1.438419, 0.349343], [-1.690073, -0.387176], [-0.611977, -2.528927], [-1.385457, 2.321995], [1.696844, 2.714476], [3.372753, 1.510096], [-2.220674, -2.525094], [0.590271, -2.111697], [-1.804575, -2.539115], [-1.755588, 1.003731], [-1.405697, -2.65553], [2.793988, 2.210844], [0.778916, 2.810342], [0.699452, -2.161511], [-2.930521, -2.226833], [1.910219, 1.628235], [-2.675934, -2.368633], [3.174304, 1.480579], [2.622735, 2.175446], [2.54302, 1.728718], [-0.233046, -2.793961], [2.014081, 2.430694], [-0.774282, -2.58163], [0.008775, 2.713683], [1.582298, 0.611696], [-2.527053, -2.698686], [-2.550716, -2.163183], [-0.918987, 2.061913], [2.652459, 2.582664], [-0.22821, -1.507573], [-1.282648, -2.317327], [-1.761192, 1.194078], [0.449608, 2.375652], [-1.636754, 0.192145], [-1.099301, 1.638167], [2.58638, 2.478482], [-2.523184, -2.290495], [-0.776549, -2.947662], [-0.793372, -1.667828], [-1.465225, 1.905813], [-0.145013, -2.902112], [-2.066675, -2.758109], [-1.133103, -2.432479], [2.002085, 2.714371], [1.463331, -1.46874], [3.255041, 0.618964], [2.576517, 2.38457], [-0.802167, 2.28011], [-1.239993, 1.969276], [2.04357, 2.38204], [0.216225, 0.24218], [-0.870034, -0.35224], [-2.457194, -2.180477], [-2.27918, -1.876329], [-0.204743, 2.244533], [-2.396159, -2.321206], [-1.247246, -2.407146], [1.497175, 2.808483], [0.96487, -0.281989], [1.795437, 2.542026], [1.245743, 0.590084], [0.403728, -0.032485], [-1.036382, 1.567557], [1.190428, 2.106451], [-1.022356, -0.588292], [-2.491789, -2.139444], [-0.687294, -1.116135], [0.826752, -2.171874], [-2.049676, -2.464007], [-3.563084, 0.018168], [1.480514, 3.174662], [1.560388, -2.180557], [-1.000932, -2.882265], [-3.252433, -0.610812], [-0.964773, -2.677127], [0.778683, -0.262839], [1.131142, -0.705946], [2.720737, 2.091187], [-0.288532, -1.982629], [-3.158008, -1.09505], [2.536084, 2.322727], [-1.051675, -0.889571], [1.901647, 2.543562], [2.670848, 2.208029], [1.14963, -0.070544], [3.15069, 1.21546], [-3.22337, -1.365248], [0.965899, 0.070688], [-0.725118, -1.09991], [3.140655, 1.932209], [2.378893, 2.285886], [-0.9388, -0.305964], [1.381643, 0.046712], [0.26643, -2.614625], [-0.689028, -2.355109], [-1.888967, 1.651221], [-0.511394, 2.848129], [-1.105153, -0.367335], [-0.950916, -2.654032], [1.204123, 0.231858], [3.594656, 0.616127], [-3.064404, -2.116906], [2.440431, 2.491379], [-1.090861, -2.797543], [1.504041, 1.26477], [-1.402722, 0.51534], [-1.286512, 2.422763], [0.853547, 3.210733], [0.537066, 0.942778], [-1.425083, 1.296428], [2.572083, 2.130157], [-2.535506, -2.298923], [2.865104, 1.455951], [-0.323283, 2.007488], [-0.891047, 2.448565], [1.502076, 0.765678], [1.324261, 2.631388], [0.805098, -1.694334], [0.717405, 2.899094], [-1.684683, -0.438488], [0.481068, 0.714158], [3.373332, 1.864476], [0.907591, -2.304805], [1.080094, 2.75927], [-3.379828, -1.468403], [-1.995673, -2.697827], [-1.424259, -2.665577], [-1.206493, 2.110952], [-1.259659, 0.614374], [0.726726, 1.090462], [-1.354123, -1.400263], [-0.778355, -2.704949], [0.303263, 1.480303], [-1.557425, 1.37215], [-1.252851, -3.159893], [-3.309153, -1.024212], [-0.354292, -2.848533], [-2.680554, -1.625929], [0.907854, -2.002081], [2.875413, 2.139194], [0.675714, 1.032457], [-0.838667, -0.254161], [-1.32196, 1.157499], [-0.616881, -3.268259], [0.986509, -1.83862], [-1.014955, -3.317333], [0.524069, 2.297427], [0.088885, 2.76963], [-1.87972, 1.604485], [-3.433224, -0.832784], [-1.564463, 0.313793], [2.11453, 2.383108], [2.973557, 2.295634], [-2.136385, 1.769858], [0.271632, 2.707753], [-1.26204, -2.528035], [2.440034, 2.618227], [2.475462, 2.545045], [-1.2266, -2.814296], [-0.041129, -2.379346], [0.781614, -2.010496], [0.587316, 3.03559], [2.760518, 2.290251], [-2.871449, -1.783078], [-2.501056, -1.29955], [-1.654431, -2.563306], [0.492745, -2.499881], [-2.909749, -1.849879], [0.99251, 0.735152], [0.211258, -0.272074], [-1.510978, 1.398526], [-1.344424, 2.293599], [0.958562, -0.913351], [0.237812, -2.279583], [-1.456427, -0.630768], [1.405572, 2.961398], [-1.887734, -2.87979], [2.614231, 1.371454], [0.824019, -2.61537], [-2.305295, -1.927649], [1.850554, 0.047739], [-1.116819, 0.469661], [2.712406, 2.312896], [3.002858, 1.664529], [-1.846574, -2.904161], [-2.255415, -2.699281], [2.58172, 2.622268], [1.866428, 2.551011], [-1.484593, -2.624628], [1.346488, -0.061794], [-3.007463, 1.158808], [-1.655239, 1.182469], [-0.418834, -1.600156], [-0.351216, 1.985065], [0.791214, -2.493873], [0.310258, -0.084674], [0.558095, -1.934981], [-2.459343, -2.169159], [2.702349, 2.269361], [-1.568777, 2.061215], [-1.754824, -2.775091], [2.853516, 1.900673], [0.819596, 3.075946], [-1.074378, -0.698982], [1.073792, -0.215532], [0.549769, -1.276182], [3.236651, 0.573931], [0.516789, -1.526612], [-1.66838, -2.636953], [-1.792809, -3.355297], [-2.196801, -2.695549], [2.177551, 2.67452], [-0.544546, 1.378663], [-3.40608, -0.909029], [1.158682, 2.686519], [-1.087437, 2.065565], [2.106287, 2.534292], [-2.618333, -2.576354], [1.032037, -2.310047], [1.30934, 2.727043], [-1.650747, -0.082687], [3.323202, 1.582666], [2.641843, 2.468223], [-3.328991, -0.140519], [1.517136, 3.18171], [-2.148775, -2.190447], [-0.30538, -2.633144], [-1.019009, 1.988357], [1.013851, -1.578214], [2.396786, 2.129475], [1.455804, 2.46259], [-0.265282, 1.875442], [-0.768878, 2.753498], [2.651417, 1.61471], [1.414227, 0.951644], [1.591776, -1.065055], [1.300644, 2.710874], [0.786668, 0.805382], [2.76812, 1.891282], [-2.187221, 1.027557], [-2.492855, -2.567969], [0.715995, 2.407426], [1.252062, 2.25525], [-2.172902, -2.926476], [-1.276656, 0.196033], [-0.255088, 2.350354], [-1.845994, -2.753922], [2.80973, 1.728914], [-0.196564, 2.653679], [-2.339661, -2.246977], [-1.702418, -2.980594], [-3.28405, -0.693028], [-0.900225, -3.002925], [-2.535102, -1.860591], [-1.136858, -1.230887], [2.502474, 1.991077], [0.970908, -2.104634], [-0.072339, -2.705799], [-2.477395, -2.18251], [3.182767, 1.987461], [-1.502904, 1.193289], [0.149878, -2.608612], [-0.280954, 2.732161], [1.595653, -1.317546], [-0.196456, 2.550422], [-1.760108, -0.570843], [-0.599997, 2.246495], [2.545825, 2.703304], [-2.161983, -2.683217], [-2.285161, -2.755389], [-0.148185, -2.481972], [-3.107765, -1.431952], [0.893143, -2.026375], [-1.035197, 1.632232], [-0.270327, -3.136163], [-1.293412, 1.656984], [0.220137, -2.581295], [2.545872, 2.559933], [2.280735, 2.294784], [1.85963, 2.709457], [2.705757, 2.025632], [-1.842341, -2.811559], [-1.146281, 0.213081], [1.491073, -0.205096], [1.047479, -0.581467], [-1.185755, 1.7493], [-1.306093, 1.290084], [-1.552877, 0.332793], [-0.910576, 1.140962], [0.405297, 2.693084], [0.456799, -1.8082], [1.113337, 2.358996], [4.209194, -0.953129], [4.415012, -0.52751], [4.248542, -0.999633], [4.389333, -0.485265], [4.25044, -0.913704], [4.413349, -1.123761], [4.043191, -0.63413], [4.315877, -0.95416], [3.977761, -1.009301], [4.32761, -0.651171], [4.329369, -0.858016], [4.354183, -0.88915], [4.351723, -1.052108], [4.233349, -0.957534], [4.339013, -0.623754], [4.207625, -0.759514], [4.251525, -1.245599], [4.387654, -1.113514], [4.346633, -0.814604], [4.269178, -0.954055], [4.315975, -1.033335], [4.203935, -0.998038], [4.310842, -0.780301], [4.28541, -0.99625], [4.324897, -0.796418], [4.253177, -0.762812], [4.323486, -0.792978], [4.096292, -0.98841], [4.346078, -0.865378], [4.222078, -1.086056], [4.3578, -0.923568], [4.37567, -0.629959], [4.316691, -0.755701], [4.404647, -0.974704], [4.351587, -0.95583], [4.222709, -1.061068], [4.218352, -1.280377], [4.264599, -0.324789], [3.971303, -1.341318], [4.210917, -1.051998], [4.137255, -1.021497], [4.234442, -1.039165], [4.294983, -1.131684], [4.243631, -1.144148], [4.293031, -0.964783], [3.980935, -0.649133], [4.276926, -0.432625], [4.222127, -0.841804], [4.187285, -1.000523], [4.047142, -0.773951], [4.298018, -0.573664], [4.361196, -0.913893], [4.406535, -0.797347], [4.022386, -0.947354], [4.277045, -1.10546], [4.273154, -0.72484], [4.28787, -0.744281], [4.323198, -0.839518], [4.373405, -0.816205], [4.348704, -0.757065], [4.320545, -0.758293], [4.333921, -0.843324], [4.235431, -0.794892], [4.263947, -0.981311], [4.02555, -1.293013], [3.960433, -1.098429], [4.268623, -1.028846], [4.28763, -0.833952], [4.315593, -1.020892], [4.449453, -0.690464], [3.999418, -1.019729], [4.397627, -1.252369], [4.172805, -0.878165], [4.331745, -0.870997], [4.161597, -1.154977], [4.112786, -0.961285], [4.28486, -0.360127], [4.29557, -1.153989], [4.183091, -0.660217], [4.245801, -1.067422], [4.059351, -0.918424], [4.040728, -0.786661], [4.364758, -0.707528], [4.245216, -0.98993], [4.125868, -0.677946], [4.398513, -0.910911], [4.211531, -1.074001], [4.403904, -0.809888], [4.234172, -0.50317], [4.128279, -0.393679], [4.348341, -0.70683], [4.325301, -0.526072], [4.232825, -0.335207], [4.253233, -1.006573], [4.29687, -0.817172], [4.127098, -1.236104], [4.371564, -0.997483], [4.337816, -0.655902], [4.38597, -1.198152], [4.200521, -1.028221], [4.274334, -1.183703], [4.221975, -0.6031], [4.120468, -0.604372], [3.771052, -0.434623], [4.127786, -0.696603], [4.234229, -0.662561], [4.352986, -1.119742], [4.069369, -0.734372], [4.429232, -1.123883], [4.067133, -0.557433], [4.21908, -0.816105], [4.262682, -0.522247], [4.226995, -0.833073], [3.988729, -0.692489], [4.332263, -0.922762], [4.242547, -1.184863], [4.367329, -0.858271], [4.337285, -0.87036], [4.367296, -0.949629], [4.125207, -0.286163], [-4.008258, 0.804123], [-3.663635, 0.592665], [-4.167366, 0.519969], [-4.31456, 0.543886], [-4.232101, 0.710632], [-4.28652, 0.349522], [-4.134682, 0.861175], [-4.081703, 0.484131], [-3.972291, 1.163147], [-3.985901, 1.222067], [-4.215161, 0.649919], [-3.903471, 0.798339], [-3.973222, 0.439471], [-4.114425, 0.806263], [-3.952797, 0.947967], [-4.297877, 0.831477], [-4.00106, 0.303276], [-4.034613, 0.786441], [-4.031198, 1.131562], [-4.094998, 0.852311], [-3.988693, 1.046462], [-4.020725, 0.764943], [-4.085149, 0.5473], [-4.058498, 0.362652], [-4.211779, 1.0426], [-3.876905, 0.625913], [-3.992464, 0.465939], [-4.075352, 0.943536], [-4.335957, 0.61307], [-4.124557, 0.54092], [-4.284456, 0.667146], [-3.964927, 1.043044], [-4.227888, 0.766277], [-3.88331, 0.772587], [-3.93085, 0.465321], [-3.941213, 0.547552], [-4.038442, 0.560632], [-4.017459, 0.636235], [-4.237571, 0.570149], [-4.182782, 0.760945], [-4.026841, 0.289538], [-4.008952, 0.807116], [-4.01227, 0.438319], [-4.214622, 0.443969], [-3.819574, 0.55589], [-3.993871, 0.708658], [-4.307773, 0.583239], [-4.10919, 0.606119], [-4.15047, 1.142188], [-4.162571, 0.558219], [-4.205567, 0.626569], [-4.053665, 0.701105], [-4.069738, 0.563235], [-4.005159, 0.909068], [-4.248477, 0.677943], [-4.17293, 0.628372], [-4.287344, 0.631059], [-4.078516, 0.366774], [-4.071905, 0.792143], [-4.014642, 0.780817], [-4.044509, 0.500326], [-4.078701, 0.705558], [-4.063246, 0.894878], [-4.184371, 1.062523], [-4.081241, 0.301535], [-4.155934, 0.637224], [-4.200741, 0.820535], [-4.06803, 0.761491], [-4.028708, 1.009502], [-4.129663, 0.757993], [-4.123079, 0.380634], [-4.218285, 0.723519], [-3.785949, 1.087322], [-4.118578, 0.564915], [-4.196854, 0.479009], [-4.246931, 0.618452], [-4.105525, 0.323458], [-3.949368, 0.38186], [-3.941916, 1.061428], [-4.078899, 0.845053], [-4.119414, 0.348655], [-3.941787, 0.874374], [-4.069373, 0.676747], [-4.068029, 0.662684], [-4.183848, 0.424104], [-4.229144, 0.813279], [-4.12073, 0.613324], [-4.006999, 0.733732], [-4.113828, 0.854392], [-4.066609, 0.702055], [-4.11718, 0.868568], [-3.874538, 0.790685], [-4.039972, 0.766676], [-4.10238, 0.455632], [-4.258472, 0.597444], [-4.122144, 0.530814], [-4.077464, 0.344051], [-4.188866, 0.121107], [-4.040641, 0.539585], [-4.119258, 0.401352], [-4.141181, 0.590738], [-4.226761, 0.378165], [-4.170638, 1.038978], [-4.143836, 0.734678], [-4.055463, 0.933066], [-4.035092, 0.444976], [-4.100389, 0.161304], [-4.104186, 0.766499], [-4.306255, 0.826089], [-4.031188, 0.914272], [-4.128375, 0.380115], [-4.040703, 0.761281], [-4.319197, 0.842344], [-4.015556, 0.834057], [-4.042242, 0.235124], [-4.145588, 0.556311], [-3.814061, 0.894582], [-4.206675, 0.770387], [-4.023605, 1.087845], [-3.939891, 0.464693]], "settle_base": [24, 15, 26, 18, 19, 26, 22, 19, 28, 25, 15, 34, 18, 20, 22, 25, 26, 17, 17, 15, 12, 23, 25, 15, 25, 22, 24, 25, 26, 18, 27, 25, 14, 17, 23, 34, 13, 16, 26, 17, 17, 35, 19, 15, 32, 15, 20, 28, 22, 33, 25, 17, 26, 26, 20, 23, 23, 29, 17, 17, 19, 19, 25, 38, 16, 15, 23, 22, 24, 21, 16, 24, 17, 17, 24, 21, 25, 17, 17, 20, 18, 25, 22, 27, 20, 23, 25, 21, 43, 16, 17, 25, 22, 19, 27, 26, 15, 20, 23, 31, 20, 25, 21, 12, 23, 19, 19, 26, 24, 32, 28, 22, 17, 20, 16, 21, 21, 26, 24, 17, 20, 19, 12, 41, 13, 19, 17, 18, 21, 16, 28, 18, 24, 13, 15, 24, 16, 26, 36, 27, 29, 26, 25, 16, 15, 20, 33, 26, 19, 15, 33, 15, 22, 23, 16, 23, 25, 16, 23, 27, 16, 24, 23, 16, 33, 17, 22, 17, 20, 24, 24, 38, 27, 16, 28, 18, 19, 13, 16, 18, 21, 15, 26, 23, 25, 17, 31, 13, 16, 29, 16, 17, 20, 21, 12, 20, 28, 17, 16, 27, 20, 20, 32, 28, 18, 26, 27, 19, 22, 12, 16, 23, 34, 23, 21, 17, 22, 25, 17, 15, 19, 26, 21, 24, 20, 22, 19, 32, 21, 18, 17, 20, 12, 17, 24, 24, 23, 23, 41, 25, 29, 26, 16, 12, 21, 18, 19, 17, 23, 28, 23, 16, 20, 15, 32, 18, 28, 12, 24, 16, 16, 27, 20, 29, 15, 16, 22, 26, 19, 18, 16, 14, 28, 23, 19, 13, 21, 29, 25, 22, 26, 24, 31, 17, 16, 19, 16, 22, 24, 24, 16, 18, 16, 14, 15, 17, 24, 20, 23, 26, 28, 26, 17, 26, 21, 16, 16, 24, 18, 17, 18, 27, 21, 27, 23, 25, 21, 12, 15, 15, 28, 12, 20, 24, 16, 13, 17, 19, 27, 19, 16, 16, 15, 22, 24, 25, 23, 17, 21, 27, 19, 18, 26, 25, 19, 21, 17, 32, 13, 28, 30, 13, 24, 22, 18, 18, 19, 17, 16, 14, 19, 18, 33, 17, 18, 21, 16, 17, 25, 21, 19, 23, 20, 37, 24, 15, 15, 14, 25, 13, 19, 25, 17, 25, 21, 16, 16, 16, 17, 17, 24, 22, 24, 25, 24, 24, 22, 21, 22, 28, 14, 13, 14, 13, 14, 13, 15, 13, 15, 13, 13, 13, 13, 14, 13, 14, 14, 13, 13, 14, 13, 14, 13, 13, 13, 14, 13, 14, 13, 14, 13, 13, 13, 13, 13, 14, 14, 14, 15, 14, 14, 14, 14, 14, 13, 15, 14, 14, 14, 15, 14, 13, 13, 15, 14, 14, 14, 13, 13, 13, 13, 13, 14, 14, 15, 15, 14, 13, 13, 13, 15, 13, 14, 13, 14, 14, 14, 14, 14, 14, 15, 15, 13, 14, 14, 13, 14, 13, 14, 14, 13, 14, 14, 14, 13, 14, 13, 13, 13, 14, 14, 14, 14, 16, 14, 14, 13, 15, 13, 15, 14, 14, 14, 15, 13, 14, 13, 13, 13, 15, 11, 13, 11, 11, 11, 11, 11, 11, 12, 12, 11, 12, 11, 11, 12, 11, 11, 11, 11, 11, 11, 11, 11, 11, 11, 11, 11, 11, 11, 11, 11, 12, 11, 12, 11, 11, 11, 11, 11, 11, 11, 11, 11, 11, 12, 11, 11, 11, 11, 11, 11, 11, 11, 11, 11, 11, 11, 11, 11, 11, 11, 11, 11, 11, 11, 11, 11, 11, 11, 11, 11, 11, 13, 11, 11, 11, 11, 11, 12, 11, 11, 11, 11, 11, 11, 11, 11, 11, 11, 11, 11, 12, 11, 11, 11, 11, 11, 11, 11, 11, 11, 11, 11, 11, 11, 11, 11, 11, 11, 11, 11, 11, 11, 11, 11, 11, 12, 11, 11, 11], "settle_edit": [24, 14, 26, 18, 19, 27, 22, 19, 28, 25, 15, 34, 18, 20, 22, 25, 27, 17, 17, 30, 12, 23, 25, 13, 25, 22, 24, 25, 26, 18, 28, 25, 14, 17, 23, 34, 13, 16, 26, 17, 17, 35, 19, 15, 32, 15, 20, 29, 22, 33, 25, 17, 28, 26, 20, 23, 24, 29, 17, 17, 19, 19, 25, 38, 16, 15, 23, 22, 24, 21, 16, 24, 16, 17, 24, 21, 26, 17, 17, 20, 18, 25, 22, 27, 19, 22, 25, 21, 42, 16, 17, 25, 22, 19, 29, 25, 15, 20, 23, 31, 20, 25, 21, 12, 23, 19, 19, 26, 24, 33, 28, 22, 17, 20, 16, 21, 21, 27, 24, 17, 20, 19, 12, 41, 13, 19, 17, 18, 21, 16, 28, 18, 24, 13, 15, 25, 16, 26, 36, 28, 29, 26, 25, 16, 14, 20, 33, 26, 19, 15, 33, 15, 22, 23, 16, 23, 25, 16, 23, 27, 16, 23, 23, 16, 33, 17, 22, 17, 20, 24, 24, 38, 27, 16, 28, 18, 19, 11, 16, 18, 21, 24, 26, 23, 25, 17, 31, 20, 16, 29, 16, 17, 20, 21, 15, 20, 28, 17, 16, 26, 20, 20, 32, 29, 18, 26, 27, 19, 22, 12, 16, 23, 33, 23, 21, 17, 22, 25, 17, 14, 19, 26, 21, 24, 20, 22, 19, 33, 21, 17, 17, 20, 14, 17, 24, 24, 23, 23, 41, 25, 29, 26, 16, 24, 21, 16, 19, 17, 23, 28, 24, 16, 20, 15, 32, 18, 29, 25, 25, 16, 16, 28, 20, 29, 15, 16, 22, 26, 19, 18, 16, 13, 24, 23, 19, 13, 21, 29, 26, 22, 26, 24, 31, 17, 16, 19, 16, 21, 24, 24, 16, 18, 16, 14, 15, 17, 24, 20, 20, 27, 28, 27, 17, 26, 21, 16, 16, 24, 18, 17, 18, 27, 21, 27, 23, 25, 21, 12, 15, 15, 29, 26, 20, 24, 16, 12, 17, 19, 28, 19, 16, 13, 15, 21, 24, 25, 23, 17, 21, 27, 19, 18, 26, 25, 19, 21, 17, 41, 13, 28, 30, 13, 24, 22, 17, 18, 19, 17, 16, 26, 19, 17, 34, 17, 18, 21, 16, 17, 25, 21, 19, 23, 20, 39, 24, 15, 15, 14, 25, 14, 19, 25, 17, 25, 21, 16, 16, 16, 17, 17, 24, 22, 24, 25, 24, 25, 22, 21, 22, 28, 14, 13, 14, 13, 14, 13, 15, 13, 15, 13, 13, 13, 13, 14, 13, 14, 14, 13, 13, 14, 13, 14, 13, 13, 13, 14, 13, 14, 13, 14, 13, 13, 13, 13, 13, 14, 14, 14, 15, 14, 14, 14, 13, 14, 13, 15, 14, 14, 14, 15, 14, 13, 13, 15, 14, 14, 13, 13, 13, 13, 13, 13, 14, 14, 15, 15, 14, 13, 13, 13, 15, 13, 14, 13, 14, 14, 14, 13, 14, 14, 15, 15, 13, 14, 14, 13, 14, 13, 14, 14, 13, 14, 14, 14, 13, 14, 13, 13, 13, 14, 14, 14, 14, 16, 14, 14, 13, 14, 13, 15, 14, 14, 14, 15, 13, 14, 13, 13, 13, 15, 11, 11, 10, 10, 10, 10, 11, 11, 11, 11, 10, 11, 11, 11, 11, 10, 11, 11, 11, 11, 11, 11, 11, 11, 11, 11, 11, 11, 10, 11, 10, 11, 11, 11, 11, 11, 11, 11, 10, 11, 11, 11, 11, 10, 11, 11, 10, 11, 11, 10, 10, 11, 11, 11, 10, 11, 10, 11, 11, 11, 11, 11, 11, 11, 10, 11, 11, 11, 11, 11, 10, 11, 11, 11, 10, 10, 10, 11, 11, 11, 10, 11, 11, 11, 10, 11, 11, 11, 11, 11, 11, 11, 11, 11, 10, 11, 11, 11, 11, 10, 11, 10, 11, 11, 11, 11, 11, 11, 10, 11, 10, 11, 10, 11, 11, 11, 11, 11, 11, 11]}, "certificate": {"sigma_base": [0.693378, 0.522237, 0.716612, 0.68964, 0.698991, 0.707662, 0.706112, 0.685745, 0.754817, 0.698655, 0.489588, 0.775058, 0.586802, 0.712309, 0.699367, 0.678998, 0.706954, 0.633526, 0.671434, 0.54616, 0.452744, 0.757759, 0.699544, 0.538583, 0.736834, 0.690518, 0.673999, 0.721855, 0.670834, 0.554581, 0.680676, 0.68515, 0.487978, 0.672131, 0.711787, 0.776702, 0.500574, 0.631739, 0.717054, 0.557825, 0.664695, 0.890727, 0.689043, 0.693259, 0.734262, 0.671767, 0.715614, 0.712252, 0.711248, 0.73919, 0.692815, 0.663092, 0.687415, 0.709702, 0.589692, 0.68498, 0.806431, 0.808955, 0.648072, 0.674611, 0.69133, 0.702239, 0.710999, 0.78494, 0.658016, 0.516708, 0.671902, 0.711252, 0.671983, 0.707292, 0.618029, 0.684595, 0.531494, 0.617043, 0.690675, 0.64908, 0.694258, 0.631082, 0.573306, 0.742412, 0.570759, 0.715141, 0.786399, 0.772726, 0.591383, 0.819117, 0.697755, 0.715687, 0.804573, 0.645878, 0.663516, 0.677509, 0.637307, 0.671586, 0.690038, 0.758598, 0.622619, 0.67555, 0.74252, 0.757174, 0.67092, 0.674755, 0.675901, 0.498017, 0.704216, 0.692592, 0.666387, 0.708182, 0.677554, 0.67142, 0.7043, 0.686487, 0.665911, 0.729817, 0.528567, 0.652679, 0.623109, 0.70235, 0.666016, 0.618421, 0.712843, 0.659952, 0.471074, 0.904317, 0.473307, 0.729126, 0.629334, 0.706281, 0.670643, 0.658629, 0.711592, 0.694349, 0.728721, 0.438535, 0.524708, 0.708041, 0.620418, 0.804347, 0.789466, 0.703976, 0.720319, 0.682485, 0.709738, 0.625026, 0.509496, 0.644257, 0.776253, 0.694251, 0.671617, 0.507551, 0.761687, 0.652022, 0.707115, 0.847365, 0.628145, 0.706471, 0.703782, 0.661802, 0.751363, 0.750523, 0.544474, 0.683072, 0.695368, 0.53206, 0.768065, 0.679782, 0.710009, 0.663237, 0.669458, 0.720683, 0.705647, 0.815237, 0.687831, 0.543263, 0.763161, 0.671923, 0.584474, 0.522894, 0.70584, 0.763411, 0.638278, 0.548008, 0.699155, 0.704255, 0.692315, 0.625715, 0.765023, 0.528326, 0.633671, 0.707177, 0.657588, 0.617081, 0.688271, 0.771303, 0.501781, 0.657141, 0.758013, 0.655896, 0.632447, 0.731549, 0.67735, 0.669572, 0.73551, 0.727465, 0.708722, 0.67521, 0.705136, 0.661766, 0.841878, 0.476339, 0.634992, 0.655542, 0.786765, 0.681196, 0.699977, 0.712387, 0.706117, 0.70524, 0.642363, 0.50563, 0.717119, 0.756533, 0.712327, 0.72507, 0.699646, 0.698454, 0.702195, 0.676213, 0.705094, 0.665434, 0.690705, 0.710118, 0.485904, 0.534398, 0.658936, 0.702214, 0.680951, 0.709866, 0.793007, 0.690064, 0.730404, 0.70774, 0.615696, 0.507578, 0.669071, 0.581096, 0.67088, 0.626196, 0.708442, 0.773074, 0.696946, 0.677004, 0.663933, 0.678394, 0.740241, 0.697907, 0.726189, 0.498877, 0.681252, 0.657134, 0.596809, 0.740288, 0.69588, 0.731659, 0.633692, 0.632114, 0.634126, 0.682932, 0.665347, 0.707439, 0.61276, 0.514305, 0.745111, 0.650676, 0.669596, 0.502687, 0.680463, 0.793563, 0.708136, 0.693376, 0.715205, 0.675919, 0.670194, 0.662405, 0.518461, 0.785984, 0.702578, 0.656451, 0.694807, 0.697351, 0.617073, 0.69196, 0.522745, 0.48478, 0.626041, 0.658841, 0.663523, 0.688269, 0.673949, 0.705009, 0.789778, 0.757172, 0.691528, 0.746388, 0.690072, 0.546105, 0.619973, 0.691392, 0.560703, 0.655103, 0.709303, 0.685352, 0.704678, 0.79108, 0.84887, 0.76611, 0.620598, 0.580192, 0.49634, 0.644256, 0.82222, 0.499196, 0.709756, 0.707328, 0.648519, 0.44906, 0.706731, 0.688865, 0.673727, 0.716362, 0.620426, 0.563967, 0.705683, 0.636759, 0.674108, 0.708825, 0.690147, 0.660893, 0.704682, 0.809038, 0.712958, 0.711426, 0.718913, 0.717749, 0.695231, 0.693094, 0.65395, 0.754534, 0.468943, 0.721032, 0.774063, 0.47312, 0.667103, 0.686518, 0.549359, 0.671503, 0.691369, 0.5622, 0.541958, 0.533724, 0.625436, 0.58489, 0.745902, 0.666303, 0.680293, 0.670791, 0.538912, 0.646964, 0.703918, 0.669757, 0.697587, 0.716292, 0.673865, 0.721732, 0.691677, 0.630078, 0.505505, 0.46848, 0.677504, 0.511868, 0.67033, 0.708334, 0.670629, 0.710837, 0.66915, 0.626979, 0.654492, 0.65776, 0.635956, 0.5369, 0.695169, 0.703262, 0.706361, 0.711237, 0.701647, 0.68294, 0.737348, 0.69677, 0.726585, 0.745655, 0.658119, 0.635219, 0.648682, 0.645987, 0.649212, 0.610005, 0.698178, 0.632907, 0.695893, 0.635747, 0.630929, 0.625193, 0.625272, 0.651319, 0.632505, 0.659587, 0.640541, 0.616219, 0.626854, 0.644814, 0.633586, 0.65238, 0.635433, 0.640814, 0.631915, 0.648952, 0.63116, 0.681673, 0.627017, 0.652718, 0.624386, 0.628124, 0.632541, 0.612957, 0.625841, 0.65326, 0.640514, 0.690164, 0.697801, 0.650754, 0.672176, 0.650264, 0.636293, 0.644916, 0.639381, 0.71785, 0.672614, 0.652528, 0.651678, 0.693815, 0.649948, 0.623564, 0.593698, 0.700043, 0.640715, 0.64406, 0.640706, 0.632112, 0.62043, 0.626424, 0.63183, 0.62999, 0.6507, 0.645743, 0.680626, 0.707669, 0.6441, 0.628013, 0.63378, 0.606073, 0.702715, 0.610405, 0.667073, 0.630137, 0.656755, 0.678662, 0.681778, 0.63553, 0.667568, 0.645812, 0.691715, 0.692624, 0.61407, 0.649745, 0.67793, 0.614355, 0.653727, 0.613059, 0.670525, 0.704669, 0.614551, 0.650213, 0.693776, 0.647748, 0.638163, 0.662738, 0.620995, 0.63263, 0.614833, 0.658731, 0.638791, 0.661825, 0.67432, 0.780208, 0.679247, 0.65521, 0.624014, 0.691572, 0.606157, 0.701841, 0.656771, 0.654313, 0.654876, 0.713661, 0.630438, 0.64511, 0.621937, 0.629225, 0.622085, 0.71821, 0.472744, 0.49354, 0.466907, 0.454137, 0.460498, 0.45176, 0.461015, 0.474093, 0.453313, 0.44816, 0.462715, 0.479662, 0.483461, 0.465535, 0.468785, 0.45215, 0.479419, 0.47167, 0.451157, 0.464692, 0.435586, 0.473541, 0.473742, 0.47495, 0.445698, 0.489076, 0.481833, 0.460967, 0.452904, 0.470533, 0.457146, 0.462123, 0.459322, 0.483293, 0.487295, 0.485548, 0.47743, 0.477779, 0.461193, 0.462639, 0.476562, 0.472576, 0.478857, 0.46171, 0.496138, 0.477536, 0.455208, 0.471317, 0.442501, 0.467398, 0.463676, 0.473301, 0.474883, 0.46193, 0.459828, 0.466106, 0.457105, 0.473104, 0.468959, 0.473297, 0.477292, 0.471486, 0.454149, 0.446085, 0.471427, 0.467372, 0.459061, 0.470295, 0.440326, 0.4663, 0.469129, 0.461214, 0.464901, 0.470948, 0.463932, 0.46044, 0.469561, 0.485438, 0.462554, 0.466094, 0.468797, 0.473913, 0.472997, 0.473426, 0.464221, 0.457644, 0.47036, 0.475716, 0.463382, 0.472513, 0.46228, 0.482946, 0.472155, 0.47209, 0.459513, 0.470714, 0.472778, 0.453096, 0.477409, 0.46987, 0.468955, 0.45893, 0.448584, 0.466141, 0.46271, 0.478004, 0.464803, 0.466753, 0.451759, 0.465531, 0.468613, 0.468885, 0.450158, 0.470825, 0.473554, 0.46879, 0.482705, 0.460678, 0.454972, 0.486505], "sigma_edit": [0.693144, 0.514855, 0.713583, 0.686417, 0.698199, 0.70588, 0.705927, 0.685705, 0.751415, 0.698751, 0.486599, 0.775305, 0.585631, 0.711684, 0.697327, 0.678941, 0.703668, 0.631288, 0.671531, 0.97996, 0.456747, 0.751666, 0.695766, 0.543241, 0.732499, 0.691048, 0.673952, 0.720006, 0.671364, 0.550962, 0.680422, 0.685156, 0.484714, 0.672301, 0.712165, 0.776507, 0.50606, 0.632128, 0.715432, 0.552082, 0.66416, 0.8909, 0.688489, 0.693414, 0.734513, 0.672018, 0.716372, 0.727014, 0.709858, 0.739443, 0.69373, 0.66034, 0.685779, 0.709671, 0.588033, 0.685328, 0.804145, 0.808484, 0.641381, 0.674731, 0.691318, 0.704139, 0.707858, 0.784913, 0.658234, 0.510269, 0.671833, 0.710547, 0.671945, 0.707041, 0.618913, 0.672347, 0.528086, 0.618693, 0.696135, 0.648689, 0.691885, 0.628863, 0.571727, 0.738572, 0.569025, 0.714963, 0.782297, 0.77238, 0.590016, 0.814934, 0.68712, 0.715122, 0.804461, 0.646161, 0.660768, 0.677454, 0.634138, 0.671538, 0.688097, 0.751054, 0.62319, 0.675452, 0.742277, 0.756312, 0.671018, 0.667572, 0.674957, 0.518466, 0.704098, 0.692574, 0.666257, 0.715051, 0.677546, 0.678486, 0.704409, 0.669725, 0.666054, 0.726139, 0.524146, 0.652957, 0.619728, 0.698346, 0.664889, 0.617081, 0.712493, 0.659833, 0.479832, 0.904745, 0.473349, 0.725277, 0.630239, 0.70837, 0.67056, 0.658758, 0.711788, 0.694329, 0.726772, 0.434694, 0.516476, 0.705354, 0.621038, 0.804419, 0.789894, 0.699736, 0.720517, 0.68119, 0.708088, 0.625719, 0.503435, 0.64393, 0.776244, 0.677, 0.671569, 0.504612, 0.762087, 0.652184, 0.706808, 0.844756, 0.628802, 0.703618, 0.695241, 0.661897, 0.752012, 0.745659, 0.535135, 0.665939, 0.693787, 0.525197, 0.76829, 0.679906, 0.709001, 0.663212, 0.669313, 0.72077, 0.704736, 0.814793, 0.684101, 0.533303, 0.762182, 0.67144, 0.579607, 0.655017, 0.705828, 0.760497, 0.637868, 0.951636, 0.699242, 0.703668, 0.691002, 0.626942, 0.765148, 0.665101, 0.634416, 0.70506, 0.657623, 0.614631, 0.687198, 0.767103, 0.562827, 0.647656, 0.756912, 0.653276, 0.628186, 0.725958, 0.676115, 0.669737, 0.735744, 0.744843, 0.707248, 0.669339, 0.705273, 0.661377, 0.840059, 0.488802, 0.635338, 0.655197, 0.784646, 0.681141, 0.689361, 0.712287, 0.706255, 0.704205, 0.643534, 0.499894, 0.715134, 0.755327, 0.707904, 0.723339, 0.698901, 0.697386, 0.701974, 0.684418, 0.705261, 0.662708, 0.690131, 0.709473, 0.539949, 0.531361, 0.657717, 0.694188, 0.67997, 0.709779, 0.794591, 0.690133, 0.733779, 0.704756, 0.614545, 0.764506, 0.668953, 0.556982, 0.669837, 0.624148, 0.708388, 0.767979, 0.697477, 0.676838, 0.662532, 0.677865, 0.740178, 0.697916, 0.744158, 0.896047, 0.681381, 0.657286, 0.59507, 0.762632, 0.696062, 0.731457, 0.633968, 0.632468, 0.633433, 0.682917, 0.664595, 0.70742, 0.612962, 0.519517, 0.696952, 0.648174, 0.669829, 0.511791, 0.680341, 0.793841, 0.705146, 0.681336, 0.715259, 0.675991, 0.670635, 0.666646, 0.515666, 0.790031, 0.702263, 0.640528, 0.692337, 0.695204, 0.617957, 0.688681, 0.519971, 0.481771, 0.6265, 0.658865, 0.662023, 0.686831, 0.890009, 0.70188, 0.789836, 0.75562, 0.691312, 0.746609, 0.689771, 0.536519, 0.620889, 0.693905, 0.558469, 0.65254, 0.70921, 0.682538, 0.703522, 0.790783, 0.846471, 0.765729, 0.618223, 0.576744, 0.493211, 0.644395, 0.82133, 0.867348, 0.709019, 0.702759, 0.648591, 0.452044, 0.705768, 0.688198, 0.674244, 0.71284, 0.62126, 0.755866, 0.705678, 0.627874, 0.67403, 0.70573, 0.688894, 0.661624, 0.704079, 0.808229, 0.709853, 0.713647, 0.71759, 0.716557, 0.694544, 0.69296, 0.652101, 0.840309, 0.46619, 0.720711, 0.773753, 0.468291, 0.664884, 0.686562, 0.546832, 0.669811, 0.691125, 0.553782, 0.539414, 0.956687, 0.62486, 0.566483, 0.745044, 0.667423, 0.679278, 0.670766, 0.52983, 0.644481, 0.702647, 0.669848, 0.697032, 0.7155, 0.67441, 0.737135, 0.693298, 0.630454, 0.50229, 0.465734, 0.677463, 0.54631, 0.669361, 0.706863, 0.670547, 0.707952, 0.669287, 0.627698, 0.65483, 0.657951, 0.633425, 0.534473, 0.686617, 0.701236, 0.70505, 0.70838, 0.701644, 0.68245, 0.732057, 0.69708, 0.726304, 0.745199, 0.661271, 0.636615, 0.651736, 0.647424, 0.65236, 0.612871, 0.699566, 0.636095, 0.698388, 0.63784, 0.634038, 0.628251, 0.628209, 0.654621, 0.633354, 0.662753, 0.643051, 0.619085, 0.629887, 0.647894, 0.636548, 0.656121, 0.638435, 0.643835, 0.634947, 0.652029, 0.634105, 0.685043, 0.630098, 0.655635, 0.627431, 0.629953, 0.635415, 0.615962, 0.628875, 0.656227, 0.642928, 0.691899, 0.701195, 0.653512, 0.675352, 0.653272, 0.639092, 0.647731, 0.642431, 0.721452, 0.67428, 0.655907, 0.654761, 0.694169, 0.651699, 0.626609, 0.603168, 0.70364, 0.643567, 0.647094, 0.643659, 0.635303, 0.62341, 0.629288, 0.635136, 0.633045, 0.65425, 0.648795, 0.683606, 0.710977, 0.647085, 0.636894, 0.636762, 0.608348, 0.706222, 0.613042, 0.670361, 0.633302, 0.65891, 0.682051, 0.683427, 0.638284, 0.670282, 0.649151, 0.695257, 0.697126, 0.613933, 0.652807, 0.68148, 0.617386, 0.656789, 0.615963, 0.672234, 0.706462, 0.613993, 0.651581, 0.695551, 0.650748, 0.641301, 0.66511, 0.62399, 0.634539, 0.617559, 0.661781, 0.641472, 0.664009, 0.678952, 0.783917, 0.682466, 0.657545, 0.626852, 0.695494, 0.609031, 0.704345, 0.659973, 0.655253, 0.658076, 0.717787, 0.633508, 0.647788, 0.624975, 0.632291, 0.625118, 0.720112, 0.557647, 0.615628, 0.520134, 0.491236, 0.517735, 0.481853, 0.536019, 0.534842, 0.54862, 0.540327, 0.518219, 0.575517, 0.553603, 0.53987, 0.565132, 0.508223, 0.543804, 0.553154, 0.537293, 0.542821, 0.553509, 0.5553, 0.53726, 0.533843, 0.510812, 0.57703, 0.550961, 0.543373, 0.49194, 0.529573, 0.505898, 0.558567, 0.520078, 0.578804, 0.562437, 0.563312, 0.546375, 0.552902, 0.509299, 0.527849, 0.53805, 0.557535, 0.546108, 0.505471, 0.585421, 0.558904, 0.495734, 0.535576, 0.509113, 0.523271, 0.518832, 0.54859, 0.540816, 0.556898, 0.513332, 0.524997, 0.503216, 0.529877, 0.546944, 0.556467, 0.54265, 0.544439, 0.54728, 0.513545, 0.526709, 0.528511, 0.525276, 0.547324, 0.54809, 0.536886, 0.521202, 0.520674, 0.597448, 0.531919, 0.5116, 0.51045, 0.522265, 0.556311, 0.562355, 0.545613, 0.520389, 0.568665, 0.545227, 0.545015, 0.510782, 0.520382, 0.533813, 0.557167, 0.539634, 0.546409, 0.538814, 0.58052, 0.55209, 0.529363, 0.50687, 0.5295, 0.529134, 0.497782, 0.545087, 0.523086, 0.529012, 0.49821, 0.518926, 0.534013, 0.547306, 0.541995, 0.519879, 0.541312, 0.506708, 0.552212, 0.520052, 0.551907, 0.504298, 0.556356, 0.533673, 0.526404, 0.591975, 0.52387, 0.543104, 0.560736]}, "metrics": {"base": {"acc": {"0": 0.9789473684210527, "1": 0.9809523809523809, "2": 1.0}, "acc_old_overall": 0.9846153846153847, "sigma_mean": 0.6285911798477173, "sigma_max": 0.9043168425559998, "params": 1733}, "teach_T1": {"acc": {"0": 0.9789473684210527, "1": 0.9809523809523809, "2": 1.0, "3": 0.8583333333333333}, "captured_old": 0, "alpha": 0.01761825691878267, "max_dlogit_old": 0.0}, "teach_T2": {"gamma_raw": 0.004474869282688068, "sigma_mean_raw": 0.6710776090621948, "sigma_max_raw": 1.4383525848388672, "rescale": 0.46234130859375, "gamma": 0.0020689169199439765, "sigma_mean": 0.6464492082595825, "sigma_max": 0.9799595475196838, "acc": {"0": 0.968421052631579, "1": 0.9761904761904762, "2": 1.0, "3": 1.0}, "flips_old_vs_T1": 3, "dz_median": 0.02030581794679165, "dz_p90": 0.07069005072116852, "dz_max": 1.4723819494247437, "n_moved_gt_0.1": 29, "n_old": 520, "dscore_median": 0.028579339385032654, "dscore_max": 1.4650228023529053, "condensation_T1": 0.15922941267490387, "condensation_T2": 0.09651269763708115, "margin_T1": 0.5494418740272522, "margin_T2": 3.833174705505371, "settle_new_T1": 11, "settle_new_T2": 11, "settle_old_T1": 18, "settle_old_T2": 19}, "evaporation": {"0": 2.4337475679203635e-07, "3": 3.265584780365316e-07, "10": 3.266221426656557e-07, "30": 3.3195354376402975e-07}, "forget_taught": {"bitwise_exact": true}, "forget_trained": {"recall_before": 1.0, "recall_after": 0.0, "acc01_before": [0.9789473684210527, 0.9809523809523809], "acc01_after": [0.9789473684210527, 0.9857142857142858], "reassigned": 121, "resurrect_recall": 1.0}, "stack": {"L": 12, "params": 18981, "acc_base": {"0": 0.9789473684210527, "1": 0.9809523809523809, "2": 1.0}, "sweep": [{"j": 0, "edit_params": 0, "acc": {"0": 0.9736842105263158, "1": 0.9809523809523809, "2": 1.0, "3": 1.0}, "condensation": 0.38969528675079346, "margin": 6.132353782653809, "dz_old_max": 0.0}, {"j": 1, "edit_params": 512, "acc": {"0": 0.9421052631578948, "1": 0.9809523809523809, "2": 1.0, "3": 1.0}, "condensation": 0.7110822200775146, "margin": 5.189624309539795, "dz_old_max": 0.4556681513786316}, {"j": 3, "edit_params": 1536, "acc": {"0": 0.9473684210526315, "1": 0.9809523809523809, "2": 1.0, "3": 1.0}, "condensation": 0.7569019198417664, "margin": 4.874423027038574, "dz_old_max": 1.5673683881759644}, {"j": 6, "edit_params": 3072, "acc": {"0": 0.9473684210526315, "1": 0.9666666666666667, "2": 1.0, "3": 1.0}, "condensation": 0.7545916438102722, "margin": 4.867356300354004, "dz_old_max": 3.809786558151245}, {"j": 12, "edit_params": 6144, "acc": {"0": 0.9473684210526315, "1": 0.9666666666666667, "2": 1.0, "3": 1.0}, "condensation": 0.7547881007194519, "margin": 4.866486549377441, "dz_old_max": 3.856657028198242}], "tied_edit_params": 512, "alpha_s": 0.034580230712890625}, "scratch4": {"acc": {"0": 0.9789473684210527, "1": 0.9809523809523809, "2": 1.0, "3": 1.0}, "overall": 0.9875, "overall_T1": 0.9609375, "overall_T2": 0.9828125}}}